
\data\
ngram 1=65890
ngram 2=1405585
ngram 3=1278919

\1-grams:
-2.788276	!	-1.755106
-2.992016	"	-0.4695309
-6.02073	#	-0.1524439
-4.571874	$	-0.2197705
-3.453544	%	-0.719145
-4.274718	&	-0.7664241
-2.446924	'	-0.5907369
-2.746688	's	-0.6490622
-2.899231	(	-0.3185187
-3.04178	)	-0.6947775
-4.812019	+	-0.2029502
-1.793737	,	-1.198448
-2.386858	-	-0.9164606
-6.02073	--	-0.1524439
-6.02073	-0171	-0.1524439
-6.02073	-10	-0.1524439
-6.02073	-12	-0.1524439
-6.02073	-13	-0.1524439
-6.02073	-14	-0.1524439
-6.02073	-172	-0.1524439
-6.02073	-1998	-0.1524439
-5.721508	-2	-0.1524439
-5.854346	-20	-0.1524439
-6.02073	-2001	-0.1524439
-6.02073	-24	-0.1524439
-5.854346	-3	-0.272546
-5.854346	-30	-0.272546
-6.02073	-4	-0.1524439
-6.02073	-40	-0.1524439
-5.854346	-5	-0.1524439
-6.02073	-50	-0.1524439
-5.854346	-6	-0.1524439
-6.02073	-65	-0.1524439
-6.02073	-8	-0.1524439
-6.02073	-80	-0.1524439
-6.02073	-a	-0.1524439
-6.02073	-a4-0312	-0.1524439
-6.02073	-although	-0.1524439
-6.02073	-an	-0.1524439
-5.209889	-and	-0.2322708
-5.854346	-are	-0.1524439
-6.02073	-as	-0.1524439
-6.02073	-b4-0324	-0.1524439
-6.02073	-b4-0557	-0.1524439
-6.02073	-b4-0776	-0.1524439
-6.02073	-b4-0931	-0.1524439
-6.02073	-b4-0945	-0.1524439
-6.02073	-b4-1004	-0.1524439
-6.02073	-b4-1007	-0.1524439
-6.02073	-b4-1043	-0.1524439
-6.02073	-because	-0.1524439
-6.02073	-become	-0.1524439
-6.02073	-benefits	-0.1524439
-6.02073	-but	-0.1524439
-6.02073	-c5-	-0.1524439
-6.02073	-c5-0433	-0.1524439
-6.02073	-ceecs	-0.1524439
-6.02073	-city	-0.1524439
-6.02073	-clearly	-0.1524439
-6.02073	-days	-0.1524439
-6.02073	-de	-0.1524439
-6.02073	-distinguishing	-0.1524439
-6.02073	-dominican	-0.1524439
-6.02073	-energy	-0.1524439
-5.721508	-european	-0.1524439
-6.02073	-financed	-0.1524439
-6.02073	-forestry	-0.1524439
-6.02073	-free	-0.1524439
-6.02073	-god	-0.1524439
-6.02073	-had	-0.1524439
-6.02073	-has	-0.1524439
-5.854346	-have	-0.1524439
-6.02073	-here	-0.1524439
-6.02073	-if	-0.1524439
-6.02073	-importing	-0.1524439
-6.02073	-in	-0.1524439
-6.02073	-in-office	-0.1524439
-6.02073	-including	-0.1524439
-6.02073	-indeed	-0.1524439
-6.02073	-innovation	-0.1524439
-5.721508	-is	-0.1524439
-5.854346	-it	-0.2725459
-6.02073	-its	-0.1524439
-6.02073	-just	-0.1524439
-6.02073	-might	-0.1524439
-6.02073	-must	-0.1524439
-6.02073	-no	-0.1524439
-6.02073	-nor	-0.1524439
-6.02073	-on	-0.1524439
-6.02073	-one	-0.1524439
-6.02073	-oral	-0.1524439
-6.02073	-paragraph	-0.1524439
-6.02073	-people	-0.1524439
-6.02073	-positive	-0.1524439
-6.02073	-resources	-0.1524439
-6.02073	-retaining	-0.1524439
-6.02073	-roll	-0.1524439
-6.02073	-sheikh	-0.1524439
-6.02073	-should	-0.1524439
-6.02073	-sponsored	-0.1524439
-6.02073	-style	-0.1524439
-6.02073	-that	-0.1524439
-5.478633	-the	-0.1524439
-6.02073	-this	-0.1524439
-6.02073	-those	-0.1524439
-6.02073	-thought	-0.1524439
-5.854346	-to	-0.1524439
-6.02073	-transfers	-0.1524439
-6.02073	-type	-0.1524439
-6.02073	-violently	-0.1524439
-6.02073	-vulnerable	-0.1524439
-6.02073	-was	-0.1524439
-5.721508	-we	-0.1524439
-6.02073	-wednesdays	-0.1524439
-6.02073	-which	-0.1524439
-6.02073	-women	-0.1524439
-1.792874	.	-1.557465
-5.854346	.-	-0.1524439
-4.252055	..	-0.6941703
-3.389955	...	-1.269938
-6.02073	..e	-0.1524439
-6.02073	..may	-0.1524439
-5.854346	..t	-0.2725459
-6.02073	.1	-0.1524439
-6.02073	.at	-0.1524439
-6.02073	.be	-0.1524439
-6.02073	.bytes	-0.1524439
-6.02073	.com	-0.1524439
-5.478633	.eu	-0.2017764
-6.02073	.info	-0.1524439
-6.02073	.net	-0.1524439
-6.02073	.org	-0.1524439
-6.02073	.pro	-0.1524439
-5.854346	.the	-0.1524439
-6.02073	.there	-0.1524439
-6.02073	.uk	-0.1524439
-2.57829	/	-0.9840433
-4.812019	0	-0.4556353
-6.02073	0-10	-0.1524439
-6.02073	0-2	-0.1524439
-5.854346	0-20	-0.1524439
-6.02073	0-26	-0.1524439
-6.02073	0-6	-0.1524439
-6.02073	0-6-year	-0.1524439
-6.02073	0.0	-0.1524439
-6.02073	0.0001	-0.1524439
-6.02073	0.00029	-0.1524439
-5.721508	0.003	-0.334645
-6.02073	0.004	-0.1524439
-6.02073	0.005	-0.1524439
-6.02073	0.006	-0.1524439
-6.02073	0.009	-0.1524439
-5.119735	0.01	-0.319421
-6.02073	0.012	-0.1524439
-5.854346	0.015	-0.272546
-6.02073	0.018	-0.1524439
-6.02073	0.02	-0.1524439
-5.478633	0.03	-0.3783563
-5.721508	0.04	-0.334645
-6.02073	0.042	-0.1524439
-5.721508	0.05	-0.2287167
-5.721508	0.07	-0.1524439
-6.02073	0.072	-0.1524439
-6.02073	0.08	-0.1524439
-4.854076	0.1	-0.6397561
-5.854346	0.10	-0.1524439
-5.721508	0.11	-0.2287167
-5.854346	0.12	-0.272546
-6.02073	0.14	-0.1524439
-5.323797	0.15	-0.345406
-5.721508	0.16	-0.2287167
-5.854346	0.17	-0.1524439
-5.119735	0.2	-0.4269646
-5.854346	0.20	-0.1524439
-6.02073	0.21	-0.1524439
-5.721508	0.22	-0.334645
-5.583309	0.23	-0.2814463
-5.854346	0.24	-0.1524439
-5.394351	0.25	-0.3010056
-5.583309	0.26	-0.4595838
-5.854346	0.27	-0.272546
-4.981458	0.3	-0.6067687
-6.02073	0.30	-0.1524439
-6.02073	0.31	-0.1524439
-5.721508	0.33	-0.334645
-6.02073	0.34	-0.1524439
-6.02073	0.35	-0.1524439
-6.02073	0.38	-0.1524439
-5.583309	0.39	-0.4595838
-5.119735	0.4	-0.7585676
-6.02073	0.43	-0.1524439
-6.02073	0.44	-0.1524439
-5.119735	0.45	-0.8989164
-5.162477	0.46	-0.8575237
-4.620628	0.5	-0.5313928
-6.02073	0.5-6.6	-0.1524439
-6.02073	0.5.	-0.1524439
-6.02073	0.56	-0.1524439
-6.02073	0.58	-0.1524439
-6.02073	0.58m	-0.1524439
-6.02073	0.5m	-0.1524439
-5.012122	0.6	-0.4552108
-6.02073	0.63	-0.1524439
-6.02073	0.69	-0.1524439
-4.58356	0.7	-0.9313402
-6.02073	0.70	-0.1524439
-5.854346	0.75	-0.272546
-5.119735	0.8	-0.3697226
-6.02073	0.85	-0.1524439
-6.02073	0.85.	-0.1524439
-6.02073	0.88	-0.1524439
-4.981458	0.9	-1.033615
-5.854346	0.95	-0.272546
-6.02073	0.97	-0.1524439
-6.02073	0.98	-0.1524439
-5.583309	0.99	-0.2814463
-5.323797	00	-0.2138152
-6.02073	00.05	-0.1524439
-6.02073	00.101	-0.1524439
-6.02073	00.20	-0.1524439
-6.02073	00.25	-0.1524439
-6.02073	00.35	-0.1524439
-3.841071	000	-0.4930634
-5.854346	000-strong	-0.1524439
-6.02073	0003	-0.1524439
-6.02073	0005	-0.1524439
-5.721508	000m	-0.1524439
-6.02073	001	-0.1524439
-6.02073	0015	-0.1524439
-6.02073	0025	-0.1524439
-6.02073	0026	-0.1524439
-6.02073	0030	-0.1524439
-5.854346	004	-0.1524439
-6.02073	0044	-0.1524439
-6.02073	0045	-0.1524439
-6.02073	0046	-0.1524439
-6.02073	005	-0.1524439
-6.02073	0052	-0.1524439
-6.02073	0055	-0.1524439
-5.854346	0056	-0.1524439
-6.02073	0057	-0.1524439
-6.02073	0058	-0.1524439
-6.02073	006	-0.1524439
-6.02073	0063	-0.1524439
-6.02073	0065	-0.1524439
-6.02073	0066	-0.1524439
-6.02073	0068	-0.1524439
-5.721508	007	-0.1524439
-6.02073	0070	-0.1524439
-6.02073	0072	-0.1524439
-6.02073	0075	-0.1524439
-6.02073	0076	-0.1524439
-6.02073	008	-0.1524439
-5.854346	0081	-0.1524439
-6.02073	0082	-0.1524439
-6.02073	0084	-0.1524439
-6.02073	0085	-0.1524439
-6.02073	009	-0.1524439
-6.02073	0096	-0.1524439
-5.854346	0098	-0.1524439
-5.721508	01	-0.1524439
-6.02073	0107	-0.1524439
-6.02073	0108	-0.1524439
-6.02073	0109	-0.1524439
-6.02073	0112	-0.1524439
-6.02073	0113	-0.1524439
-6.02073	0114	-0.1524439
-6.02073	0115	-0.1524439
-6.02073	0116	-0.1524439
-6.02073	0117	-0.1524439
-5.854346	0118	-0.1524439
-6.02073	0123	-0.1524439
-6.02073	0125	-0.1524439
-6.02073	0126	-0.1524439
-6.02073	0132	-0.1524439
-6.02073	0133	-0.1524439
-6.02073	0134	-0.1524439
-5.854346	0136	-0.1524439
-6.02073	0137	-0.1524439
-6.02073	014	-0.1524439
-6.02073	0142	-0.1524439
-6.02073	0144	-0.1524439
-6.02073	0146	-0.1524439
-5.854346	0147	-0.1524439
-6.02073	0149	-0.1524439
-6.02073	0158	-0.1524439
-6.02073	0159	-0.1524439
-6.02073	0160	-0.1524439
-6.02073	0169	-0.1524439
-6.02073	0171	-0.1524439
-6.02073	0179	-0.1524439
-6.02073	0180	-0.1524439
-6.02073	0183	-0.1524439
-6.02073	0184	-0.1524439
-6.02073	0186	-0.1524439
-6.02073	0187	-0.1524439
-6.02073	0188	-0.1524439
-6.02073	019	-0.1524439
-6.02073	0192	-0.1524439
-6.02073	0193	-0.1524439
-6.02073	0195	-0.1524439
-5.854346	02	-0.1524439
-5.854346	020	-0.1524439
-6.02073	0202	-0.1524439
-6.02073	0203	-0.1524439
-6.02073	0206	-0.1524439
-6.02073	0208	-0.1524439
-6.02073	0213	-0.1524439
-6.02073	0215	-0.1524439
-6.02073	0216	-0.1524439
-6.02073	0217	-0.1524439
-6.02073	0227	-0.1524439
-6.02073	0232	-0.1524439
-6.02073	0233	-0.1524439
-6.02073	0235	-0.1524439
-6.02073	0236	-0.1524439
-6.02073	0237	-0.1524439
-6.02073	0238	-0.1524439
-6.02073	0240	-0.1524439
-6.02073	0243	-0.1524439
-6.02073	0250	-0.1524439
-6.02073	0252	-0.1524439
-6.02073	0253	-0.1524439
-6.02073	0259	-0.1524439
-6.02073	0262	-0.1524439
-6.02073	0268	-0.1524439
-6.02073	0277	-0.1524439
-6.02073	0278	-0.1524439
-6.02073	028	-0.1524439
-6.02073	0287	-0.1524439
-6.02073	0291	-0.1524439
-6.02073	0292	-0.1524439
-6.02073	0297	-0.1524439
-5.854346	03	-0.1524439
-6.02073	030	-0.1524439
-6.02073	0307	-0.1524439
-6.02073	0308	-0.1524439
-6.02073	0309	-0.1524439
-6.02073	0311	-0.1524439
-5.854346	0313	-0.1524439
-6.02073	0314	-0.1524439
-6.02073	0316	-0.1524439
-6.02073	0317	-0.1524439
-6.02073	0323	-0.1524439
-6.02073	0329	-0.1524439
-6.02073	0333	-0.1524439
-6.02073	0336	-0.1524439
-6.02073	0337	-0.1524439
-6.02073	0338	-0.1524439
-6.02073	0351	-0.1524439
-6.02073	0353	-0.1524439
-6.02073	0358	-0.1524439
-6.02073	0359	-0.1524439
-6.02073	0360	-0.1524439
-6.02073	0361	-0.1524439
-6.02073	0362	-0.1524439
-6.02073	0363	-0.1524439
-6.02073	0364	-0.1524439
-6.02073	0365	-0.1524439
-6.02073	0368	-0.1524439
-5.854346	0369	-0.1524439
-6.02073	0370	-0.1524439
-6.02073	0371	-0.1524439
-6.02073	0372	-0.1524439
-6.02073	0373	-0.1524439
-6.02073	0376	-0.1524439
-6.02073	0377	-0.1524439
-6.02073	0378	-0.1524439
-6.02073	0379	-0.1524439
-6.02073	0381	-0.1524439
-6.02073	0382	-0.1524439
-6.02073	0383	-0.1524439
-6.02073	0386	-0.1524439
-6.02073	0387	-0.1524439
-6.02073	0388	-0.1524439
-6.02073	0389	-0.1524439
-6.02073	0390	-0.1524439
-6.02073	0391	-0.1524439
-6.02073	0392	-0.1524439
-6.02073	0393	-0.1524439
-6.02073	0395	-0.1524439
-6.02073	0396	-0.1524439
-6.02073	0397	-0.1524439
-6.02073	040	-0.1524439
-6.02073	0410	-0.1524439
-6.02073	0411	-0.1524439
-6.02073	0443	-0.1524439
-6.02073	0471	-0.1524439
-5.854346	05	-0.1524439
-5.854346	050	-0.1524439
-6.02073	051	-0.1524439
-6.02073	0512	-0.1524439
-6.02073	053	-0.1524439
-6.02073	0594	-0.1524439
-6.02073	0600	-0.1524439
-6.02073	0628	-0.1524439
-6.02073	0660	-0.1524439
-6.02073	0663	-0.1524439
-6.02073	0665	-0.1524439
-6.02073	0667	-0.1524439
-6.02073	0673	-0.1524439
-6.02073	07	-0.1524439
-6.02073	0704	-0.1524439
-6.02073	0705	-0.1524439
-6.02073	0706	-0.1524439
-6.02073	0707	-0.1524439
-6.02073	0711	-0.1524439
-6.02073	0712	-0.1524439
-6.02073	0714	-0.1524439
-6.02073	0715	-0.1524439
-6.02073	0716	-0.1524439
-6.02073	0717	-0.1524439
-6.02073	0718	-0.1524439
-6.02073	0719	-0.1524439
-6.02073	0720	-0.1524439
-6.02073	0722	-0.1524439
-6.02073	0725	-0.1524439
-6.02073	0726	-0.1524439
-6.02073	0727	-0.1524439
-6.02073	0728	-0.1524439
-6.02073	073	-0.1524439
-6.02073	0730	-0.1524439
-6.02073	0734	-0.1524439
-6.02073	0736	-0.1524439
-6.02073	0738	-0.1524439
-6.02073	0739	-0.1524439
-6.02073	0740	-0.1524439
-6.02073	0741	-0.1524439
-6.02073	0742	-0.1524439
-6.02073	0743	-0.1524439
-6.02073	075	-0.1524439
-6.02073	0795	-0.1524439
-6.02073	0803	-0.1524439
-6.02073	0806	-0.1524439
-6.02073	0807	-0.1524439
-6.02073	0808	-0.1524439
-6.02073	0809	-0.1524439
-6.02073	0810	-0.1524439
-6.02073	0811	-0.1524439
-6.02073	0812	-0.1524439
-6.02073	0813	-0.1524439
-6.02073	0814	-0.1524439
-6.02073	0815	-0.1524439
-6.02073	0818	-0.1524439
-6.02073	0819	-0.1524439
-6.02073	0822	-0.1524439
-6.02073	0825	-0.1524439
-6.02073	090	-0.1524439
-6.02073	0981	-0.1524439
-3.757508	1	-0.5971612
-5.854346	1,000	-0.1524439
-6.02073	1,067	-0.1524439
-6.02073	1,2	-0.1524439
-5.854346	1,200	-0.1524439
-6.02073	1,240	-0.1524439
-6.02073	1,288	-0.1524439
-6.02073	1,3	-0.1524439
-6.02073	1,300	-0.1524439
-6.02073	1,323	-0.1524439
-6.02073	1,327	-0.1524439
-6.02073	1,372	-0.1524439
-5.721508	1,500	-0.1524439
-6.02073	1,500-2,000	-0.1524439
-6.02073	1,518	-0.1524439
-6.02073	1,577	-0.1524439
-6.02073	1,600	-0.1524439
-5.854346	1,625	-0.1524439
-6.02073	1,776	-0.1524439
-6.02073	1,800	-0.1524439
-6.02073	1,825	-0.1524439
-6.02073	1,850	-0.1524439
-6.02073	1,900	-0.1524439
-5.854346	1-0	-0.1524439
-5.854346	1-1-2	-0.1524439
-6.02073	1-1.2	-0.1524439
-6.02073	1-10	-0.1524439
-6.02073	1-19	-0.1524439
-5.721508	1-2	-0.2083564
-5.478633	1-3	-0.1524439
-5.721508	1-4	-0.1524439
-5.583309	1-5	-0.2083564
-6.02073	1-8	-0.1524439
-6.02073	1-9	-0.1524439
-6.02073	1-a	-0.1524439
-6.02073	1-b	-0.1524439
-6.02073	1-dollar	-0.1524439
-6.02073	1-euro	-0.1524439
-5.854346	1.	-0.1702934
-6.02073	1.0	-0.1524439
-5.721508	1.00	-0.2083564
-6.02073	1.01	-0.1524439
-5.721508	1.02	-0.2814463
-5.478633	1.03	-0.5564937
-5.854346	1.04	-0.272546
-5.478633	1.05	-0.2340588
-5.721508	1.06	-0.2814463
-5.721508	1.07	-0.2287167
-5.478633	1.08	-0.2457214
-5.854346	1.09	-0.272546
-4.981458	1.1	-0.5913312
-6.02073	1.1.2000.	-0.1524439
-6.02073	1.1.2002	-0.1524439
-5.583309	1.10	-0.2083564
-6.02073	1.10.	-0.1524439
-5.721508	1.11	-0.334645
-5.721508	1.12	-0.2287167
-5.583309	1.13	-0.2814463
-5.721508	1.14	-0.2725459
-6.02073	1.145	-0.1524439
-5.209889	1.15	-0.306995
-6.02073	1.15m	-0.1524439
-6.02073	1.16	-0.1524439
-5.583309	1.17	-0.2083564
-5.721508	1.18	-0.1524439
-6.02073	1.186	-0.1524439
-5.854346	1.19	-0.1524439
-4.721851	1.2	-0.7358831
-6.02073	1.2.2001	-0.1524439
-5.721508	1.20	-0.2083564
-6.02073	1.21	-0.1524439
-6.02073	1.215	-0.1524439
-5.854346	1.22	-0.272546
-5.854346	1.23	-0.1524439
-5.854346	1.24	-0.1524439
-5.721508	1.25	-0.1524439
-5.721508	1.26	-0.1524439
-4.812019	1.27	-0.8361188
-5.721508	1.28	-0.1524439
-6.02073	1.286	-0.1524439
-5.721508	1.29	-0.2287167
-6.02073	1.2bn	-0.1524439
-4.755707	1.3	-0.6525494
-6.02073	1.3.2001	-0.1524439
-5.478633	1.30	-0.3879118
-6.02073	1.32	-0.1524439
-5.583309	1.35	-0.2083564
-6.02073	1.36	-0.1524439
-5.721508	1.37	-0.1524439
-6.02073	1.38	-0.1524439
-6.02073	1.38.	-0.1524439
-5.854346	1.39	-0.1524439
-4.876737	1.4	-0.5319756
-6.02073	1.40	-0.1524439
-6.02073	1.41	-0.1524439
-6.02073	1.41p.m.	-0.1524439
-6.02073	1.42	-0.1524439
-5.854346	1.43	-0.1524439
-6.02073	1.44	-0.1524439
-6.02073	1.45	-0.1524439
-6.02073	1.48	-0.1524439
-6.02073	1.4b.	-0.1524439
-6.02073	1.4bn	-0.1524439
-4.528045	1.5	-0.6899793
-5.854346	1.50	-0.1524439
-6.02073	1.51	-0.1524439
-6.02073	1.54	-0.1524439
-5.721508	1.55	-0.1524439
-6.02073	1.56	-0.1524439
-6.02073	1.57	-0.1524439
-6.02073	1.58	-0.1524439
-6.02073	1.5b	-0.1524439
-6.02073	1.5bn	-0.1524439
-5.854346	1.5m	-0.1524439
-4.876737	1.6	-0.5592945
-6.02073	1.60	-0.1524439
-6.02073	1.630	-0.1524439
-6.02073	1.66	-0.1524439
-5.854346	1.67	-0.1524439
-6.02073	1.6709	-0.1524439
-6.02073	1.68	-0.1524439
-6.02073	1.6b.	-0.1524439
-4.675556	1.7	-0.7704667
-6.02073	1.70	-0.1524439
-6.02073	1.72	-0.1524439
-5.583309	1.75	-0.2083564
-6.02073	1.78bn.	-0.1524439
-4.876737	1.8	-0.4215211
-6.02073	1.84	-0.1524439
-6.02073	1.85	-0.1524439
-5.045116	1.9	-0.5845224
-6.02073	1.children	-0.1524439
-6.02073	1.complete	-0.1524439
-6.02073	1.customs	-0.1524439
-6.02073	1.economic	-0.1524439
-6.02073	1.finland	-0.1524439
-6.02073	1.i	-0.1524439
-6.02073	1.in	-0.1524439
-6.02073	1.investment	-0.1524439
-6.02073	1.issues	-0.1524439
-6.02073	1.it	-0.1524439
-6.02073	1.my	-0.1524439
-6.02073	1.negotiations	-0.1524439
-6.02073	1.over	-0.1524439
-6.02073	1.the	-0.1524439
-6.02073	1.this	-0.1524439
-6.02073	1.we	-0.1524439
-6.02073	1.what	-0.1524439
-6.02073	1.when	-0.1524439
-3.78112	10	-0.5786772
-5.583309	10,000	-0.2083564
-6.02073	10,920	-0.1524439
-6.02073	10-11	-0.1524439
-5.721508	10-12	-0.1524439
-6.02073	10-13	-0.1524439
-5.209889	10-15	-0.4559076
-5.854346	10-20	-0.1524439
-6.02073	10-euro	-0.1524439
-6.02073	10-mile	-0.1524439
-5.854346	10-minute	-0.2725459
-5.854346	10-month	-0.1524439
-5.854346	10-point	-0.1524439
-5.583309	10-year	-0.1965832
-6.02073	10-year-rule	-0.1524439
-5.854346	10.00	-0.2287167
-6.02073	10.04	-0.1524439
-6.02073	10.05	-0.1524439
-6.02073	10.09	-0.1524439
-5.721508	10.1	-0.2083564
-6.02073	10.10	-0.1524439
-6.02073	10.15	-0.1524439
-5.721508	10.2	-0.2287167
-6.02073	10.20	-0.1524439
-6.02073	10.25	-0.1524439
-6.02073	10.28	-0.1524439
-6.02073	10.29	-0.1524439
-5.583309	10.3	-0.2725459
-5.478633	10.30	-0.188908
-5.854346	10.35	-0.2287167
-6.02073	10.4	-0.1524439
-6.02073	10.40	-0.1524439
-6.02073	10.40.	-0.1524439
-6.02073	10.41	-0.1524439
-6.02073	10.44	-0.1524439
-6.02073	10.45	-0.1524439
-6.02073	10.48	-0.1524439
-5.478633	10.5	-0.2980808
-6.02073	10.50	-0.1524439
-6.02073	10.55	-0.1524439
-6.02073	10.5m	-0.1524439
-6.02073	10.6	-0.1524439
-5.394351	10.7	-0.3985261
-5.583309	10.8	-0.1965832
-6.02073	10.8bn	-0.1524439
-5.721508	10.9	-0.2457214
-6.02073	10.9bn	-0.1524439
-3.876786	100	-0.5488635
-5.080824	100,000	-0.2155262
-6.02073	100-200	-0.1524439
-6.02073	100.066	-0.1524439
-6.02073	100.3	-0.1524439
-6.02073	100.6	-0.1524439
-6.02073	100.7	-0.1524439
-4.661159	1000	-0.226996
-6.02073	1006	-0.1524439
-5.263119	100a	-0.2118851
-6.02073	100c	-0.1524439
-5.478633	100m	-0.179501
-6.02073	100th	-0.1524439
-5.119735	101	-0.2153406
-6.02073	101.4m	-0.1524439
-5.854346	1017	-0.1524439
-6.02073	101a	-0.1524439
-4.900646	102	-0.2784225
-5.721508	102a	-0.334645
-5.080824	103	-0.2532916
-6.02073	103.2	-0.1524439
-6.02073	1032	-0.1524439
-6.02073	1035	-0.1524439
-6.02073	1037	-0.1524439
-6.02073	103a	-0.1524439
-5.080824	104	-0.2057032
-6.02073	10418	-0.1524439
-5.854346	1045	-0.1524439
-6.02073	10483	-0.1524439
-5.854346	1049	-0.2457214
-6.02073	104a	-0.1524439
-6.02073	104c	-0.1524439
-4.981458	105	-0.2387463
-6.02073	105.3	-0.1524439
-5.854346	1051	-0.1524439
-6.02073	10593	-0.1524439
-6.02073	105a	-0.1524439
-6.02073	105a.2	-0.1524439
-5.080824	106	-0.2006041
-6.02073	106.5m	-0.1524439
-6.02073	10697	-0.1524439
-5.012122	107	-0.2837028
-6.02073	107-109	-0.1524439
-6.02073	107.35	-0.1524439
-6.02073	107.8	-0.1524439
-6.02073	1070	-0.1524439
-6.02073	1073	-0.1524439
-6.02073	1078	-0.1524439
-4.981458	108	-0.2546364
-5.209889	109	-0.2421207
-6.02073	1091	-0.1524439
-6.02073	1097	-0.1524439
-6.02073	1099	-0.1524439
-6.02073	109a	-0.1524439
-6.02073	109b	-0.1524439
-6.02073	109c	-0.1524439
-6.02073	109f.4	-0.1524439
-6.02073	109j	-0.1524439
-6.02073	109k	-0.1524439
-6.02073	109l	-0.1524439
-6.02073	109m	-0.1524439
-6.02073	10a	-0.1524439
-6.02073	10b	-0.1524439
-6.02073	10kms	-0.1524439
-6.02073	10m	-0.1524439
-5.854346	10mg	-0.2725459
-5.583309	10th	-0.2017764
-4.103832	11	-0.4457012
-5.854346	11-12	-0.1524439
-6.02073	11-16	-0.1524439
-5.854346	11-19	-0.1524439
-6.02073	11-5	-0.1524439
-6.02073	11-country	-0.1524439
-6.02073	11-hour	-0.1524439
-6.02073	11-zone	-0.1524439
-5.721508	11.00	-0.2169656
-6.02073	11.02	-0.1524439
-6.02073	11.03	-0.1524439
-6.02073	11.05	-0.1524439
-6.02073	11.06	-0.1524439
-6.02073	11.07	-0.1524439
-6.02073	11.08	-0.1524439
-6.02073	11.09	-0.1524439
-5.854346	11.1	-0.272546
-5.854346	11.10	-0.2287167
-6.02073	11.12	-0.1524439
-6.02073	11.13	-0.1524439
-6.02073	11.14	-0.1524439
-6.02073	11.15	-0.1524439
-6.02073	11.17	-0.1524439
-5.854346	11.2	-0.1524439
-5.854346	11.20	-0.1965832
-6.02073	11.20.	-0.1524439
-6.02073	11.22	-0.1524439
-6.02073	11.24	-0.1524439
-6.02073	11.25	-0.1524439
-6.02073	11.27	-0.1524439
-6.02073	11.28	-0.1524439
-6.02073	11.29	-0.1524439
-5.394351	11.30	-0.219186
-6.02073	11.30a.m	-0.1524439
-6.02073	11.33	-0.1524439
-6.02073	11.35	-0.1524439
-6.02073	11.36	-0.1524439
-6.02073	11.37	-0.1524439
-6.02073	11.38	-0.1524439
-5.854346	11.4	-0.1524439
-6.02073	11.40	-0.1524439
-6.02073	11.41	-0.1524439
-6.02073	11.42	-0.1524439
-6.02073	11.44	-0.1524439
-6.02073	11.45	-0.1524439
-6.02073	11.46	-0.1524439
-6.02073	11.47	-0.1524439
-6.02073	11.48	-0.1524439
-5.854346	11.49	-0.2725459
-5.323797	11.5	-0.3614449
-6.02073	11.50	-0.1524439
-6.02073	11.51	-0.1524439
-6.02073	11.53	-0.1524439
-6.02073	11.54	-0.1524439
-6.02073	11.55	-0.1524439
-6.02073	11.56	-0.1524439
-6.02073	11.58	-0.1524439
-6.02073	11.59	-0.1524439
-5.854346	11.6	-0.2083564
-6.02073	11.6.	-0.1524439
-6.02073	11.6m	-0.1524439
-6.02073	11.7	-0.1524439
-5.854346	11.8	-0.1524439
-6.02073	11.a.m	-0.1524439
-4.607917	110	-0.3519611
-6.02073	110-day	-0.1524439
-5.721508	1100	-0.2287167
-5.854346	1101	-0.1524439
-6.02073	1103	-0.1524439
-5.854346	1107	-0.2287167
-5.721508	110a	-0.188908
-5.045116	111	-0.173953
-4.981458	112	-0.2690207
-6.02073	112-page	-0.1524439
-6.02073	112.5	-0.1524439
-6.02073	11292	-0.1524439
-4.925949	113	-0.2505752
-6.02073	11317	-0.1524439
-6.02073	1139	-0.1524439
-5.209889	114	-0.1923799
-5.012122	115	-0.2507706
-6.02073	1155	-0.1524439
-6.02073	11568	-0.1524439
-5.080824	116	-0.2319017
-6.02073	1169	-0.1524439
-5.323797	117	-0.1835077
-6.02073	1170	-0.1524439
-5.854346	11784	-0.1524439
-5.854346	11785	-0.1524439
-5.045116	118	-0.1851207
-6.02073	1181	-0.1524439
-6.02073	118a	-0.1524439
-6.02073	118b	-0.1524439
-5.080824	119	-0.2165303
-6.02073	11941	-0.1524439
-6.02073	1197	-0.1524439
-6.02073	1199	-0.1524439
-6.02073	11a	-0.1524439
-6.02073	11a.m	-0.1524439
-5.721508	11th	-0.1965832
-3.933892	12	-0.4979801
-5.854346	12,000	-0.1524439
-6.02073	12,500	-0.1524439
-6.02073	12-13	-0.1524439
-6.02073	12-16	-0.1524439
-6.02073	12-hour	-0.1524439
-5.323797	12-mile	-0.3483931
-5.854346	12-month	-0.1524439
-6.02073	12-months	-0.1524439
-5.854346	12-star	-0.2725459
-6.02073	12-tonne	-0.1524439
-5.854346	12-year	-0.1524439
-5.854346	12-year-old	-0.1524439
-5.263119	12.00	-0.3697226
-5.854346	12.01	-0.1524439
-6.02073	12.02	-0.1524439
-6.02073	12.04	-0.1524439
-6.02073	12.05	-0.1524439
-6.02073	12.08	-0.1524439
-6.02073	12.09	-0.1524439
-5.721508	12.10	-0.1524439
-6.02073	12.10.1995	-0.1524439
-6.02073	12.11	-0.1524439
-6.02073	12.11.	-0.1524439
-6.02073	12.13	-0.1524439
-6.02073	12.14	-0.1524439
-5.721508	12.15	-0.2287167
-5.854346	12.2	-0.1524439
-6.02073	12.2.	-0.1524439
-5.583309	12.20	-0.2340588
-6.02073	12.25	-0.1524439
-6.02073	12.28	-0.1524439
-6.02073	12.3	-0.1524439
-6.02073	12.3.	-0.1524439
-5.263119	12.30	-0.3588328
-6.02073	12.30.	-0.1524439
-6.02073	12.34	-0.1524439
-6.02073	12.35	-0.1524439
-6.02073	12.36	-0.1524439
-6.02073	12.38	-0.1524439
-5.721508	12.4	-0.1524439
-6.02073	12.40	-0.1524439
-6.02073	12.43	-0.1524439
-6.02073	12.44	-0.1524439
-6.02073	12.45	-0.1524439
-6.02073	12.46	-0.1524439
-6.02073	12.49	-0.1524439
-5.162477	12.5	-0.419749
-6.02073	12.50	-0.1524439
-6.02073	12.51	-0.1524439
-6.02073	12.53	-0.1524439
-6.02073	12.54	-0.1524439
-6.02073	12.55	-0.1524439
-5.854346	12.6	-0.2725459
-6.02073	12.7	-0.1524439
-6.02073	12.75	-0.1524439
-5.721508	12.8	-0.1524439
-4.386916	120	-0.3425665
-5.854346	120,000	-0.1524439
-6.02073	120-130	-0.1524439
-6.02073	120.82	-0.1524439
-5.263119	1200	-0.17641
-5.854346	12000	-0.1524439
-6.02073	12008	-0.1524439
-6.02073	1200g	-0.1524439
-6.02073	120g	-0.1524439
-6.02073	120m	-0.1524439
-5.263119	121	-0.2287167
-6.02073	1215	-0.1524439
-6.02073	1217	-0.1524439
-6.02073	1218	-0.1524439
-4.952817	122	-0.210038
-6.02073	122.5	-0.1524439
-6.02073	1223	-0.1524439
-6.02073	1229	-0.1524439
-6.02073	122m	-0.1524439
-6.02073	122nd	-0.1524439
-4.981458	123	-0.1997633
-6.02073	1239	-0.1524439
-6.02073	123m	-0.1524439
-5.394351	124	-0.1524439
-5.854346	1244	-0.1524439
-4.900646	125	-0.3664681
-6.02073	125,000	-0.1524439
-6.02073	1251	-0.1524439
-5.721508	1254	-0.1524439
-5.854346	1257	-0.2083564
-6.02073	1259	-0.1524439
-6.02073	125m	-0.1524439
-5.012122	126	-0.2141541
-6.02073	1260	-0.1524439
-6.02073	1268	-0.1524439
-5.162477	127	-0.2131229
-6.02073	127a	-0.1524439
-5.080824	128	-0.2275805
-5.854346	128.4	-0.1524439
-5.854346	1284	-0.1524439
-5.162477	129	-0.2312496
-6.02073	1292	-0.1524439
-6.02073	1293	-0.1524439
-5.721508	129a	-0.1835077
-6.02073	129b	-0.1524439
-6.02073	129c	-0.1524439
-6.02073	129d	-0.1524439
-5.854346	12m	-0.1524439
-5.854346	12th	-0.179501
-4.04863	13	-0.4381802
-5.854346	13,000	-0.1524439
-5.721508	13-14	-0.1524439
-6.02073	13-20	-0.1524439
-6.02073	13-minute	-0.1524439
-5.854346	13-year	-0.1524439
-6.02073	13-year-old	-0.1524439
-6.02073	13.00	-0.1524439
-6.02073	13.05	-0.1524439
-5.721508	13.1	-0.334645
-5.854346	13.2	-0.1524439
-6.02073	13.34	-0.1524439
-6.02073	13.38	-0.1524439
-6.02073	13.3m	-0.1524439
-5.478633	13.5	-0.1524439
-6.02073	13.6	-0.1524439
-5.854346	13.8	-0.2725459
-6.02073	13.9	-0.1524439
-4.571874	130	-0.3806906
-5.721508	130,000	-0.1524439
-6.02073	130.00	-0.1524439
-5.478633	1300	-0.1524439
-6.02073	13003	-0.1524439
-6.02073	1302	-0.1524439
-5.721508	130a	-0.2287167
-5.854346	130b	-0.2083564
-6.02073	130c	-0.1524439
-6.02073	130d	-0.1524439
-6.02073	130f	-0.1524439
-6.02073	130i	-0.1524439
-6.02073	130k	-0.1524439
-6.02073	130m	-0.1524439
-6.02073	130p	-0.1524439
-5.583309	130s	-0.2083564
-6.02073	130t	-0.1524439
-6.02073	130u	-0.1524439
-6.02073	130v	-0.1524439
-6.02073	130w	-0.1524439
-6.02073	130x	-0.1524439
-5.323797	131	-0.2166226
-6.02073	131.6.	-0.1524439
-6.02073	1310	-0.1524439
-6.02073	1312	-0.1524439
-5.478633	132	-0.2017764
-6.02073	1320	-0.1524439
-6.02073	13207	-0.1524439
-6.02073	13248	-0.1524439
-6.02073	1325	-0.1524439
-5.045116	133	-0.2621171
-6.02073	133rd	-0.1524439
-5.394351	134	-0.2169656
-5.854346	13428	-0.2725459
-6.02073	13482	-0.1524439
-4.876737	135	-0.2746311
-6.02073	135-page	-0.1524439
-6.02073	1359	-0.1524439
-5.209889	136	-0.2020492
-6.02073	1360	-0.1524439
-6.02073	1368	-0.1524439
-5.045116	137	-0.2485762
-6.02073	1372	-0.1524439
-6.02073	1373	-0.1524439
-6.02073	1376	-0.1524439
-5.854346	13760	-0.2725459
-6.02073	1378	-0.1524439
-6.02073	137of	-0.1524439
-5.209889	138	-0.2410195
-6.02073	138.b	-0.1524439
-6.02073	1384	-0.1524439
-6.02073	13873	-0.1524439
-6.02073	1389	-0.1524439
-6.02073	138a	-0.1524439
-6.02073	138b	-0.1524439
-5.854346	138d	-0.1524439
-5.854346	138e	-0.1524439
-5.323797	139	-0.188908
-6.02073	1390	-0.1524439
-5.721508	1397	-0.272546
-6.02073	139m	-0.1524439
-6.02073	13a	-0.1524439
-5.394351	13th	-0.179501
-4.025089	14	-0.4708186
-6.02073	14-	-0.1524439
-5.721508	14-15	-0.1524439
-6.02073	14-16	-0.1524439
-6.02073	14-17	-0.1524439
-6.02073	14-20	-0.1524439
-6.02073	14-25	-0.1524439
-6.02073	14-currency	-0.1524439
-6.02073	14-day	-0.1524439
-5.854346	14-point	-0.2725459
-5.854346	14-year-old	-0.1524439
-5.854346	14-year-olds	-0.1524439
-5.854346	14.2	-0.272546
-5.854346	14.3	-0.1524439
-6.02073	14.34	-0.1524439
-6.02073	14.4	-0.1524439
-5.323797	14.5	-0.2580599
-6.02073	14.5.	-0.1524439
-6.02073	14.55	-0.1524439
-6.02073	14.6	-0.1524439
-6.02073	14.65	-0.1524439
-6.02073	14.7	-0.1524439
-5.854346	14.8	-0.1524439
-5.854346	14.9	-0.1524439
-4.620628	140	-0.3148248
-5.394351	1400	-0.1524439
-5.854346	14001	-0.1524439
-6.02073	14002	-0.1524439
-6.02073	14003	-0.1524439
-6.02073	14007	-0.1524439
-6.02073	14015	-0.1524439
-5.721508	1402	-0.2083564
-6.02073	1403	-0.1524439
-5.162477	1408	-0.3494303
-6.02073	140871	-0.1524439
-6.02073	1409	-0.1524439
-6.02073	140g	-0.1524439
-5.012122	141	-0.216756
-6.02073	1419	-0.1524439
-6.02073	14191	-0.1524439
-5.012122	142	-0.1778619
-6.02073	1422	-0.1524439
-5.854346	1426	-0.1524439
-5.854346	1429	-0.1524439
-5.263119	143	-0.1813662
-5.162477	144	-0.1999145
-5.721508	1441	-0.1729043
-6.02073	1442	-0.1524439
-6.02073	1448	-0.1524439
-6.02073	144m	-0.1524439
-5.012122	145	-0.1905258
-6.02073	1452	-0.1524439
-6.02073	1454	-0.1524439
-6.02073	1457	-0.1524439
-6.02073	145m	-0.1524439
-6.02073	145th	-0.1524439
-5.323797	146	-0.1859918
-6.02073	1460	-0.1524439
-6.02073	1463	-0.1524439
-6.02073	14645	-0.1524439
-6.02073	1466	-0.1524439
-5.854346	1467	-0.1524439
-5.080824	147	-0.2006041
-6.02073	147-acre	-0.1524439
-6.02073	1474	-0.1524439
-5.854346	1475	-0.2287167
-5.119735	148	-0.1813662
-6.02073	1483	-0.1524439
-6.02073	1486	-0.1524439
-6.02073	14867	-0.1524439
-5.162477	149	-0.1923799
-6.02073	1492	-0.1524439
-5.854346	14m	-0.1524439
-5.583309	14th	-0.1835077
-3.786756	15	-0.5830353
-5.394351	15,000	-0.1524439
-5.721508	15-16	-0.2287167
-6.02073	15-18	-0.1524439
-6.02073	15-19	-0.1524439
-5.583309	15-20	-0.2725459
-6.02073	15-24	-0.1524439
-6.02073	15-25	-0.1524439
-6.02073	15-30	-0.1524439
-6.02073	15-day	-0.1524439
-6.02073	15-days-at-sea	-0.1524439
-6.02073	15-fold	-0.1524439
-5.854346	15-member	-0.2287167
-6.02073	15-minute	-0.1524439
-5.854346	15-page	-0.1524439
-6.02073	15-state	-0.1524439
-5.854346	15-year	-0.1524439
-5.721508	15-year-old	-0.2083564
-6.02073	15-year-olds	-0.1524439
-6.02073	15.00	-0.1524439
-6.02073	15.05	-0.1524439
-6.02073	15.1.	-0.1524439
-6.02073	15.10	-0.1524439
-5.854346	15.2	-0.1524439
-5.854346	15.4	-0.2725459
-5.854346	15.5	-0.1524439
-6.02073	15.6	-0.1524439
-6.02073	15.6.2001	-0.1524439
-6.02073	15.9	-0.1524439
-4.317469	150	-0.4490723
-5.478633	150,000	-0.1965832
-4.925949	1500	-0.1984165
-6.02073	15000	-0.1524439
-6.02073	150g	-0.1524439
-6.02073	150m	-0.1524439
-6.02073	150th	-0.1524439
-5.263119	151	-0.2308457
-6.02073	151-152	-0.1524439
-6.02073	151.8	-0.1524439
-6.02073	1512	-0.1524439
-6.02073	1516	-0.1524439
-5.323797	152	-0.1747141
-6.02073	152m	-0.1524439
-5.263119	153	-0.1965832
-5.478633	154	-0.2138152
-6.02073	1540	-0.1524439
-6.02073	1548	-0.1524439
-5.209889	155	-0.2340588
-5.209889	156	-0.1882184
-5.394351	157	-0.1950517
-6.02073	1577	-0.1524439
-5.394351	158	-0.2393212
-5.263119	159	-0.2083564
-6.02073	1595	-0.1524439
-6.02073	15a	-0.1524439
-5.854346	15m	-0.1524439
-6.02073	15o	-0.1524439
-5.854346	15th	-0.1524439
-4.084641	16	-0.4295821
-6.02073	16,000	-0.1524439
-5.854346	16-17	-0.2725459
-5.854346	16-18	-0.1524439
-6.02073	16-25	-0.1524439
-6.02073	16-27	-0.1524439
-5.854346	16-29	-0.1524439
-6.02073	16-metre	-0.1524439
-6.02073	16-page	-0.1524439
-6.02073	16-year	-0.1524439
-6.02073	16.06.1994	-0.1524439
-6.02073	16.11.2001	-0.1524439
-6.02073	16.2	-0.1524439
-6.02073	16.2.2001	-0.1524439
-5.854346	16.3	-0.2725459
-6.02073	16.3.2001	-0.1524439
-6.02073	16.30	-0.1524439
-6.02073	16.35	-0.1524439
-5.721508	16.4	-0.2287167
-5.854346	16.5	-0.2287167
-5.854346	16.6	-0.1524439
-5.854346	16.7	-0.2083564
-6.02073	16.8	-0.1524439
-6.02073	16.9.86	-0.1524439
-4.607917	160	-0.3636733
-5.478633	1600	-0.1524439
-6.02073	1600s	-0.1524439
-5.854346	1601	-0.1524439
-5.854346	160m	-0.1524439
-5.854346	161	-0.1524439
-6.02073	1610	-0.1524439
-5.854346	1612	-0.2725459
-6.02073	1616	-0.1524439
-5.162477	162	-0.1832747
-5.854346	1626	-0.1524439
-5.854346	1628	-0.1524439
-5.323797	163	-0.1835077
-6.02073	1636	-0.1524439
-6.02073	1638	-0.1524439
-6.02073	163m	-0.1524439
-5.583309	164	-0.2083564
-6.02073	164-170	-0.1524439
-5.162477	165	-0.1923799
-6.02073	1657	-0.1524439
-6.02073	1659	-0.1524439
-5.263119	166	-0.1764101
-5.323797	167	-0.3010056
-6.02073	167.33	-0.1524439
-5.080824	168	-0.2144029
-6.02073	1683	-0.1524439
-6.02073	1689	-0.1524439
-5.119735	169	-0.2039998
-5.854346	1692	-0.2725459
-5.854346	16a	-0.1524439
-6.02073	16b	-0.1524439
-6.02073	16e	-0.1524439
-6.02073	16fava	-0.1524439
-6.02073	16m	-0.1524439
-5.854346	16th	-0.1524439
-4.111753	17	-0.4496666
-5.854346	17-18	-0.1524439
-6.02073	17-21	-0.1524439
-6.02073	17-b	-0.1524439
-6.02073	17-beta-oestradiol	-0.1524439
-6.02073	17-beta-ostradiol	-0.1524439
-6.02073	17-fold	-0.1524439
-6.02073	17-page	-0.1524439
-6.02073	17-year	-0.1524439
-5.854346	17-year-old	-0.1524439
-6.02073	17.1	-0.1524439
-6.02073	17.10	-0.1524439
-6.02073	17.2	-0.1524439
-6.02073	17.24	-0.1524439
-6.02073	17.4	-0.1524439
-5.209889	17.5	-0.4583549
-5.854346	17.6	-0.1524439
-6.02073	17.8	-0.1524439
-6.02073	17.9	-0.1524439
-4.854076	170	-0.2874708
-6.02073	170,000	-0.1524439
-5.854346	1700	-0.1524439
-6.02073	170m	-0.1524439
-5.119735	171	-0.1957803
-6.02073	1714	-0.1524439
-6.02073	1715	-0.1524439
-5.263119	172	-0.1524439
-5.394351	173	-0.1835077
-5.854346	1732	-0.2725459
-5.263119	174	-0.1923799
-5.209889	175	-0.1999145
-6.02073	175,000	-0.1524439
-6.02073	175.304	-0.1524439
-6.02073	1756	-0.1524439
-5.583309	176	-0.1524439
-6.02073	1762	-0.1524439
-6.02073	1763	-0.1524439
-5.854346	1765	-0.2725459
-5.721508	1766	-0.2287167
-5.721508	177	-0.1524439
-5.263119	178	-0.1965832
-5.721508	1787	-0.1524439
-5.478633	1789	-0.2287167
-5.263119	179	-0.173953
-6.02073	1791	-0.1524439
-6.02073	1792	-0.1524439
-5.854346	1793	-0.2287167
-6.02073	1794	-0.1524439
-6.02073	1799	-0.1524439
-5.854346	17a	-0.1524439
-6.02073	17bn	-0.1524439
-6.02073	17th	-0.1524439
-6.02073	17ß	-0.1524439
-6.02073	17ß-oestradiol	-0.1524439
-6.02073	17â	-0.1524439
-4.025089	18	-0.5046613
-5.721508	18-19	-0.1524439
-5.583309	18-20	-0.2814463
-6.02073	18-24	-0.1524439
-6.02073	18-25	-0.1524439
-6.02073	18-hour	-0.1524439
-5.854346	18-month	-0.1524439
-5.721508	18-year	-0.1524439
-6.02073	18.2	-0.1524439
-5.854346	18.3	-0.2725459
-6.02073	18.4	-0.1524439
-5.583309	18.5	-0.4595837
-6.02073	18.5.2001	-0.1524439
-6.02073	18.6	-0.1524439
-6.02073	18.75	-0.1524439
-6.02073	18.97	-0.1524439
-4.633723	180	-0.35026
-6.02073	180,000	-0.1524439
-6.02073	180-200	-0.1524439
-6.02073	1800	-0.1524439
-6.02073	1800s	-0.1524439
-6.02073	1803	-0.1524439
-6.02073	180m	-0.1524439
-5.162477	181	-0.2235946
-6.02073	1810	-0.1524439
-6.02073	1813	-0.1524439
-6.02073	1814	-0.1524439
-6.02073	1814-1815	-0.1524439
-5.854346	1815	-0.1524439
-6.02073	1818	-0.1524439
-5.854346	181a	-0.1524439
-5.263119	182	-0.173953
-5.854346	1820	-0.1524439
-5.394351	183	-0.1524439
-5.721508	184	-0.1524439
-6.02073	1842	-0.1524439
-5.854346	1848	-0.1524439
-5.209889	185	-0.2017764
-6.02073	185.4	-0.1524439
-5.478633	186	-0.1524439
-6.02073	1860	-0.1524439
-6.02073	1860s	-0.1524439
-5.721508	1861	-0.1524439
-6.02073	1861-65	-0.1524439
-6.02073	1863	-0.1524439
-5.854346	1865	-0.1524439
-5.854346	1866	-0.1524439
-5.583309	187	-0.1524439
-6.02073	1871	-0.1524439
-5.854346	1872	-0.2725459
-6.02073	1873	-0.1524439
-6.02073	1876	-0.1524439
-5.323797	188	-0.1835077
-6.02073	1880	-0.1524439
-6.02073	1889	-0.1524439
-6.02073	188c	-0.1524439
-5.119735	189	-0.19856
-6.02073	1896	-0.1524439
-5.854346	189b	-0.1524439
-5.854346	189c	-0.1524439
-6.02073	18a	-0.1524439
-6.02073	18m	-0.1524439
-5.394351	18th	-0.1995517
-4.220134	19	-0.4399539
-6.02073	19,000	-0.1524439
-5.721508	19-20	-0.2083564
-6.02073	19-26	-0.1524439
-6.02073	19-fold	-0.1524439
-6.02073	19-member	-0.1524439
-5.854346	19.1	-0.2725459
-6.02073	19.1.2001	-0.1524439
-6.02073	19.28	-0.1524439
-5.854346	19.3	-0.1524439
-6.02073	19.30	-0.1524439
-6.02073	19.36	-0.1524439
-6.02073	19.5	-0.1524439
-6.02073	19.6	-0.1524439
-6.02073	19.7	-0.1524439
-6.02073	19.9.	-0.1524439
-4.952817	190	-0.2594372
-5.854346	190,000	-0.1524439
-5.721508	1900	-0.2287167
-6.02073	1901	-0.1524439
-6.02073	1905-1914	-0.1524439
-5.854346	1907	-0.1524439
-6.02073	1909	-0.1524439
-5.394351	191	-0.1923799
-6.02073	191.4	-0.1524439
-5.721508	1910	-0.1524439
-5.478633	1911	-0.1965832
-6.02073	1912	-0.1524439
-6.02073	1913	-0.1524439
-5.583309	1914	-0.2083564
-6.02073	1914-1918	-0.1524439
-5.721508	1915	-0.1965832
-6.02073	1915-1917	-0.1524439
-6.02073	1916	-0.1524439
-5.583309	1917	-0.2523981
-5.583309	1918	-0.1524439
-5.854346	1919	-0.2287167
-6.02073	191a	-0.1524439
-5.394351	192	-0.1524439
-6.02073	1920	-0.1524439
-6.02073	1920s	-0.1524439
-6.02073	1921	-0.1524439
-5.854346	1922	-0.2083564
-5.854346	1923	-0.1524439
-6.02073	1924	-0.1524439
-6.02073	1925	-0.1524439
-6.02073	1926	-0.1524439
-6.02073	1927	-0.1524439
-6.02073	1928	-0.1524439
-5.394351	1929	-0.2083564
-5.263119	193	-0.2083564
-5.721508	1930	-0.2287167
-5.854346	1930s	-0.17641
-5.854346	1931	-0.1524439
-6.02073	1932	-0.1524439
-5.721508	1933	-0.1524439
-5.854346	1936	-0.1524439
-5.721508	1938	-0.1835076
-5.854346	1939	-0.1524439
-6.02073	1939-1940	-0.1524439
-5.394351	194	-0.1524439
-5.854346	1940	-0.1524439
-6.02073	1940s	-0.1524439
-6.02073	1941	-0.1524439
-6.02073	1943	-0.1524439
-5.721508	1944	-0.1524439
-5.162477	1945	-0.2838696
-5.323797	1946	-0.2800875
-5.394351	1947	-0.1923799
-5.323797	1948	-0.2006041
-5.162477	1949	-0.2491492
-5.394351	195	-0.1835076
-5.119735	1950	-0.293278
-5.854346	1950s	-0.1666643
-5.263119	1951	-0.2693157
-5.323797	1952	-0.2235946
-5.854346	1953	-0.1524439
-5.478633	1954	-0.2121728
-5.854346	1955	-0.1524439
-5.045116	1956	-0.2642386
-5.263119	1957	-0.2857612
-5.394351	1958	-0.2688209
-5.394351	1959	-0.2322708
-5.854346	196	-0.1524439
-5.323797	1960	-0.2247713
-5.394351	1960s	-0.2292711
-5.263119	1961	-0.3089654
-5.394351	1962	-0.2490469
-6.02073	1962-1967	-0.1524439
-5.323797	1963	-0.2083564
-5.394351	1964	-0.2017764
-5.394351	1965	-0.2051159
-5.323797	1966	-0.188908
-5.209889	1967	-0.2670597
-5.209889	1968	-0.2365894
-5.263119	1969	-0.2322708
-5.478633	197	-0.1965832
-5.119735	1970	-0.3010255
-5.478633	1970s	-0.2061104
-5.323797	1971	-0.2340588
-5.394351	1972	-0.2320124
-6.02073	1972-1975	-0.1524439
-5.162477	1973	-0.2713718
-5.263119	1974	-0.3243992
-5.012122	1975	-0.2326849
-5.119735	1976	-0.3409057
-4.952817	1977	-0.2979169
-5.119735	1978	-0.2847884
-5.162477	1979	-0.2862835
-5.583309	198	-0.2083564
-4.952817	1980	-0.2717573
-5.583309	1980s	-0.2256561
-5.209889	1981	-0.3090828
-6.02073	1981-1988	-0.1524439
-5.209889	1982	-0.3110626
-5.012122	1983	-0.2786782
-5.045116	1984	-0.3172105
-6.02073	1984-1992	-0.1524439
-6.02073	1984-83	-0.1524439
-6.02073	1984-89	-0.1524439
-5.045116	1985	-0.2936325
-6.02073	1985-1998	-0.1524439
-4.854076	1986	-0.3463564
-4.900646	1987	-0.3456407
-4.773678	1988	-0.3679928
-6.02073	1988-1995	-0.1524439
-6.02073	1988-1999	-0.1524439
-4.633723	1989	-0.3770524
-6.02073	1989-10	-0.1524439
-6.02073	1989-1991	-0.1524439
-5.583309	1989-1993	-0.1524439
-6.02073	1989-1999	-0.1524439
-5.854346	1989-90	-0.1524439
-6.02073	198a	-0.1524439
-5.583309	199	-0.1524439
-4.528045	1990	-0.3328347
-6.02073	1990-1992	-0.1524439
-5.854346	1990-1994	-0.1524439
-5.854346	1990-1995	-0.1524439
-6.02073	1990-1996	-0.1524439
-6.02073	1990-1997	-0.1524439
-6.02073	1990-2010	-0.1524439
-5.583309	1990s	-0.2189723
-4.633723	1991	-0.346073
-5.583309	1991-1994	-0.2814463
-6.02073	1991-1996	-0.1524439
-6.02073	1991-2	-0.1524439
-6.02073	199192	-0.1524439
-4.538595	1992	-0.3249866
-5.721508	1992-1993	-0.1524439
-6.02073	1992-1994	-0.1524439
-6.02073	1992-2002	-0.1524439
-6.02073	1992-2003	-0.1524439
-5.854346	1992-93	-0.1524439
-4.620628	1993	-0.3627465
-5.721508	1993-1994	-0.1524439
-5.854346	1993-1995	-0.1524439
-5.854346	1993-1997	-0.1524439
-5.583309	1993-1999	-0.2083564
-6.02073	1993-2003	-0.1524439
-5.854346	1993-94	-0.1524439
-5.854346	1993-99	-0.1524439
-4.418135	1994	-0.401342
-5.583309	1994-1995	-0.2083564
-5.854346	1994-1996	-0.1524439
-5.854346	1994-1998	-0.1524439
-5.209889	1994-1999	-0.1970722
-6.02073	1994-9	-0.1524439
-5.721508	1994-95	-0.1524439
-6.02073	1994-99	-0.1524439
-4.394513	1995	-0.4074508
-5.394351	1995-1996	-0.2061104
-5.854346	1995-1997	-0.1524439
-5.394351	1995-1999	-0.1524439
-5.721508	1995-2000	-0.1524439
-5.854346	1995-96	-0.1524439
-6.02073	1995-97	-0.1524439
-6.02073	1995-99	-0.1524439
-4.292527	1996	-0.4663391
-5.478633	1996-1997	-0.1965832
-5.583309	1996-1998	-0.188908
-5.721508	1996-1999	-0.1524439
-5.721508	1996-2000	-0.1524439
-6.02073	1996-480	-0.1524439
-5.721508	1996-97	-0.1524439
-6.02073	19961997	-0.1524439
-4.257611	1997	-0.4380239
-5.394351	1997-1998	-0.1524439
-5.583309	1997-1999	-0.2340588
-5.394351	1997-2000	-0.1835077
-5.854346	1997-2001	-0.1524439
-6.02073	1997-2002	-0.1524439
-6.02073	1997-2006	-0.1524439
-5.583309	1997-98	-0.1965832
-5.854346	19971999	-0.1524439
-4.209995	1998	-0.4537997
-6.02073	1998-0225	-0.1524439
-5.323797	1998-1999	-0.1882184
-5.583309	1998-2000	-0.1524439
-5.394351	1998-2002	-0.2433656
-6.02073	1998-2005	-0.1524439
-6.02073	1998-2006	-0.1524439
-6.02073	1998-2008	-0.1524439
-6.02073	1998-40	-0.1524439
-5.394351	1998-99	-0.188908
-4.158102	1999	-0.492367
-5.478633	1999-2000	-0.1524439
-6.02073	1999-2001	-0.1524439
-5.854346	1999-2002	-0.2725459
-5.583309	1999-2003	-0.1524439
-6.02073	1999468	-0.1524439
-6.02073	1999on	-0.1524439
-6.02073	19a	-0.1524439
-5.394351	19th	-0.2393525
-6.02073	19th-century	-0.1524439
-4.925949	1a	-0.2498381
-4.900646	1b	-0.2323802
-6.02073	1billion	-0.1524439
-5.854346	1bn	-0.2083564
-5.583309	1c	-0.1524439
-5.721508	1d	-0.2287167
-6.02073	1f	-0.1524439
-6.02073	1g	-0.1524439
-6.02073	1july	-0.1524439
-6.02073	1kg	-0.1524439
-5.583309	1m	-0.2083564
-6.02073	1p.m.	-0.1524439
-6.02073	1ppm	-0.1524439
-5.209889	1st	-0.288247
-3.822201	2	-0.516862
-5.721508	2,000	-0.1524439
-6.02073	2,100	-0.1524439
-6.02073	2,300	-0.1524439
-5.854346	2,500	-0.1524439
-6.02073	2,810	-0.1524439
-6.02073	2,950	-0.1524439
-5.854346	2-	-0.1524439
-6.02073	2-0	-0.1524439
-6.02073	2-2	-0.1524439
-5.721508	2-3	-0.1524439
-6.02073	2-4	-0.1524439
-6.02073	2-5	-0.1524439
-6.02073	2-522	-0.1524439
-6.02073	2-8	-0.1524439
-6.02073	2-mile	-0.1524439
-6.02073	2-year	-0.1524439
-5.854346	2.	-0.1524439
-5.854346	2.0	-0.1524439
-6.02073	2.00	-0.1524439
-6.02073	2.02	-0.1524439
-6.02073	2.03	-0.1524439
-6.02073	2.05	-0.1524439
-6.02073	2.06	-0.1524439
-6.02073	2.07	-0.1524439
-5.045116	2.1	-0.4251381
-5.854346	2.10	-0.1524439
-6.02073	2.11	-0.1524439
-6.02073	2.125	-0.1524439
-6.02073	2.13	-0.1524439
-5.854346	2.14	-0.1524439
-6.02073	2.15	-0.1524439
-6.02073	2.16	-0.1524439
-6.02073	2.18	-0.1524439
-4.952817	2.2	-0.5391794
-6.02073	2.20	-0.1524439
-6.02073	2.245	-0.1524439
-6.02073	2.25	-0.1524439
-6.02073	2.258	-0.1524439
-6.02073	2.26	-0.1524439
-6.02073	2.26m	-0.1524439
-6.02073	2.27	-0.1524439
-5.854346	2.28	-0.1524439
-6.02073	2.289	-0.1524439
-4.925949	2.3	-0.5761476
-6.02073	2.323	-0.1524439
-6.02073	2.35	-0.1524439
-6.02073	2.3bn	-0.1524439
-4.925949	2.4	-0.5761476
-6.02073	2.4.	-0.1524439
-6.02073	2.45	-0.1524439
-6.02073	2.4bn	-0.1524439
-4.620628	2.5	-0.6773161
-6.02073	2.5-3	-0.1524439
-6.02073	2.5.	-0.1524439
-6.02073	2.54	-0.1524439
-6.02073	2.5g	-0.1524439
-6.02073	2.5g.	-0.1524439
-5.854346	2.5m	-0.1524439
-5.045116	2.6	-0.5613062
-6.02073	2.65	-0.1524439
-6.02073	2.69	-0.1524439
-5.012122	2.7	-0.4554753
-5.854346	2.7.	-0.1524439
-6.02073	2.7bn	-0.1524439
-5.080824	2.8	-0.5912694
-5.209889	2.9	-0.3281258
-6.02073	2.95	-0.1524439
-6.02073	2.96	-0.1524439
-6.02073	2.a	-0.1524439
-6.02073	2.children	-0.1524439
-6.02073	2.in	-0.1524439
-6.02073	2.since	-0.1524439
-6.02073	2.the	-0.1524439
-6.02073	2.timescales	-0.1524439
-6.02073	2.with	-0.1524439
-3.804117	20	-0.6079516
-5.583309	20,000	-0.1524439
-6.02073	20,5	-0.1524439
-6.02073	20-22	-0.1524439
-6.02073	20-24	-0.1524439
-5.478633	20-25	-0.1965832
-6.02073	20-25p	-0.1524439
-6.02073	20-26	-0.1524439
-6.02073	20-28	-0.1524439
-5.478633	20-30	-0.2523981
-6.02073	20-39	-0.1524439
-6.02073	20-and	-0.1524439
-6.02073	20-day	-0.1524439
-6.02073	20-miles-per-hour	-0.1524439
-6.02073	20-minute	-0.1524439
-6.02073	20-point	-0.1524439
-6.02073	20-something	-0.1524439
-6.02073	20-state	-0.1524439
-5.721508	20-year	-0.179501
-6.02073	20-year-old	-0.1524439
-6.02073	20.18	-0.1524439
-6.02073	20.2	-0.1524439
-6.02073	20.3	-0.1524439
-6.02073	20.41	-0.1524439
-6.02073	20.5	-0.1524439
-6.02073	20.6	-0.1524439
-6.02073	20.8	-0.1524439
-6.02073	20.9.2001	-0.1524439
-4.136419	200	-0.4326
-6.02073	200,00	-0.1524439
-5.263119	200,000	-0.179501
-6.02073	200-300	-0.1524439
-5.583309	200-mile	-0.2457213
-6.02073	200-odd	-0.1524439
-6.02073	200-year-old	-0.1524439
-4.009022	2000	-0.4661547
-6.02073	2000-06	-0.1524439
-5.323797	2000-2001	-0.1950517
-5.721508	2000-2002	-0.2083564
-5.583309	2000-2003	-0.1524439
-5.162477	2000-2004	-0.321358
-5.478633	2000-2005	-0.2633253
-4.925949	2000-2006	-0.2865101
-5.854346	2000-2008	-0.1524439
-5.854346	2000-2010	-0.1524439
-6.02073	2000-plus	-0.1524439
-6.02073	20000	-0.1524439
-6.02073	20002006	-0.1524439
-6.02073	2000programme	-0.1524439
-6.02073	2000riv1	-0.1524439
-4.263239	2001	-0.4835455
-5.721508	2001-2002	-0.1524439
-5.854346	2001-2003	-0.1524439
-5.583309	2001-2005	-0.1965832
-5.721508	2001-2006	-0.2814463
-6.02073	2001-2010	-0.1524439
-6.02073	2001by	-0.1524439
-6.02073	2001compromise	-0.1524439
-4.235801	2002	-0.5093768
-5.583309	2002-2003	-0.1835077
-5.721508	2002-2004	-0.188908
-6.02073	2002-2005	-0.1524439
-5.209889	2002-2006	-0.2066378
-6.02073	2002-2007	-0.1524439
-6.02073	2002-2010	-0.1524439
-4.257611	2003	-0.54843
-5.263119	2003-2004	-0.2433656
-5.721508	2003-2005	-0.2287167
-5.478633	2003-2006	-0.2017763
-6.02073	2003-2007	-0.1524439
-6.02073	2003-2008	-0.1524439
-4.292527	2004	-0.466504
-5.721508	2004-2005	-0.2083564
-6.02073	2004-2006	-0.1524439
-6.02073	2004-2007	-0.1524439
-5.721508	2004-2008	-0.1524439
-6.02073	2004-proof	-0.1524439
-4.528045	2005	-0.4974119
-5.854346	2005-2006	-0.2725459
-6.02073	2005-2009	-0.1524439
-6.02073	2005-2019	-0.1524439
-6.02073	2005-6	-0.1524439
-4.595568	2006	-0.4547183
-6.02073	2006-2007	-0.1524439
-6.02073	2006-2013	-0.1524439
-4.738449	2007	-0.4340715
-6.02073	2007-13	-0.1524439
-6.02073	2007-2008	-0.1524439
-5.721508	2007-2013	-0.1524439
-4.755707	2008	-0.3915821
-5.854346	2008-2012	-0.1524439
-6.02073	2008-2015	-0.1524439
-4.876737	2009	-0.4160916
-5.721508	200m	-0.1835077
-6.02073	200msv	-0.1524439
-6.02073	200th	-0.1524439
-5.394351	201	-0.1524439
-4.721851	2010	-0.3491971
-6.02073	2010-2015	-0.1524439
-5.263119	2011	-0.2051159
-5.080824	2012	-0.3697806
-5.080824	2013	-0.3539758
-6.02073	2013-2014	-0.1524439
-5.854346	2014	-0.1524439
-5.080824	2015	-0.252468
-5.854346	2016	-0.1524439
-5.854346	2017	-0.1524439
-5.721508	2018	-0.1524439
-5.583309	2019	-0.2214178
-5.478633	202	-0.1636316
-4.925949	2020	-0.3413441
-6.02073	2021	-0.1524439
-6.02073	2023	-0.1524439
-5.583309	2025	-0.1835077
-6.02073	2026	-0.1524439
-5.583309	2027	-0.2083564
-5.394351	203	-0.1642617
-6.02073	203,000	-0.1524439
-5.209889	2030	-0.3861763
-6.02073	2031	-0.1524439
-6.02073	2033	-0.1524439
-6.02073	2034	-0.1524439
-5.478633	2035	-0.1524439
-6.02073	2036	-0.1524439
-6.02073	2037	-0.1524439
-5.854346	204	-0.1524439
-6.02073	204.4	-0.1524439
-5.583309	2040	-0.2083564
-6.02073	2045	-0.1524439
-5.854346	2048	-0.1524439
-6.02073	2049	-0.1524439
-5.583309	205	-0.1524439
-5.394351	2050	-0.2272064
-6.02073	2052	-0.1524439
-6.02073	2055	-0.1524439
-5.854346	2057	-0.1524439
-6.02073	2058	-0.1524439
-5.263119	206	-0.1657618
-6.02073	206.4	-0.1524439
-6.02073	2063	-0.1524439
-6.02073	2069	-0.1524439
-5.478633	207	-0.2287167
-6.02073	2070	-0.1524439
-5.854346	2075	-0.2725459
-6.02073	2076	-0.1524439
-5.583309	2078	-0.1524439
-5.323797	208	-0.179501
-5.721508	2080	-0.188908
-6.02073	2081	-0.1524439
-5.854346	2082	-0.2287167
-6.02073	2083	-0.1524439
-6.02073	2087	-0.1524439
-6.02073	2089	-0.1524439
-5.263119	209	-0.2490469
-5.854346	2092	-0.1965832
-6.02073	2093	-0.1524439
-6.02073	2094	-0.1524439
-6.02073	209a	-0.1524439
-6.02073	20a	-0.1524439
-5.854346	20bn	-0.1524439
-6.02073	20d	-0.1524439
-5.721508	20m	-0.1764101
-6.02073	20s	-0.1524439
-5.209889	20th	-0.3572095
-5.854346	20th-century	-0.1524439
-4.241152	21	-0.3955509
-6.02073	21,000	-0.1524439
-5.721508	21-22	-0.2287167
-6.02073	21-year-old	-0.1524439
-6.02073	21.02	-0.1524439
-6.02073	21.3	-0.1524439
-6.02073	21.75	-0.1524439
-6.02073	21.9	-0.1524439
-5.162477	210	-0.1923799
-5.394351	2100	-0.188908
-6.02073	2103	-0.1524439
-6.02073	2104	-0.1524439
-6.02073	2105	-0.1524439
-6.02073	2106	-0.1524439
-6.02073	2107	-0.1524439
-6.02073	2108	-0.1524439
-6.02073	2109	-0.1524439
-5.394351	211	-0.2083564
-6.02073	2111	-0.1524439
-6.02073	2119	-0.1524439
-5.323797	212	-0.1524439
-6.02073	2120	-0.1524439
-6.02073	2126	-0.1524439
-5.854346	2127	-0.1524439
-5.478633	213	-0.179501
-6.02073	21334	-0.1524439
-6.02073	2137	-0.1524439
-5.323797	214	-0.1835077
-6.02073	214.3	-0.1524439
-6.02073	2141	-0.1524439
-6.02073	21425	-0.1524439
-6.02073	2146	-0.1524439
-5.478633	215	-0.188908
-6.02073	215,000	-0.1524439
-6.02073	2153	-0.1524439
-6.02073	2155	-0.1524439
-6.02073	2156	-0.1524439
-6.02073	2157	-0.1524439
-5.721508	2158	-0.334645
-5.394351	216	-0.2121728
-6.02073	2164	-0.1524439
-6.02073	2166	-0.1524439
-6.02073	2167	-0.1524439
-6.02073	2168	-0.1524439
-6.02073	2169	-0.1524439
-5.721508	217	-0.2287167
-6.02073	2173	-0.1524439
-6.02073	2174	-0.1524439
-6.02073	2175	-0.1524439
-5.583309	218	-0.2083564
-6.02073	2181	-0.1524439
-6.02073	2183	-0.1524439
-6.02073	2186	-0.1524439
-6.02073	2187	-0.1524439
-6.02073	2188	-0.1524439
-5.583309	219	-0.179501
-6.02073	2195	-0.1524439
-6.02073	21a	-0.1524439
-5.478633	21st	-0.3010056
-6.02073	21st-century	-0.1524439
-4.205012	22	-0.4154395
-5.854346	22-23	-0.1524439
-6.02073	22-28	-0.1524439
-6.02073	22-4-99	-0.1524439
-6.02073	22-fold	-0.1524439
-5.854346	22-month	-0.1524439
-6.02073	22-page	-0.1524439
-6.02073	22-year	-0.1524439
-6.02073	22.1	-0.1524439
-6.02073	22.10.	-0.1524439
-5.854346	22.3	-0.272546
-5.583309	22.5	-0.2725459
-5.854346	22.6	-0.1524439
-6.02073	22.7	-0.1524439
-4.981458	220	-0.2348667
-6.02073	220,000	-0.1524439
-6.02073	220.210	-0.1524439
-5.854346	2200	-0.1524439
-6.02073	2201	-0.1524439
-6.02073	2202	-0.1524439
-6.02073	2207	-0.1524439
-6.02073	2208	-0.1524439
-6.02073	2209	-0.1524439
-6.02073	220m	-0.1524439
-5.478633	221	-0.1524439
-6.02073	2211	-0.1524439
-6.02073	2213	-0.1524439
-6.02073	2215	-0.1524439
-6.02073	2218	-0.1524439
-5.323797	222	-0.2083564
-5.394351	223	-0.1524439
-6.02073	2231	-0.1524439
-6.02073	2238	-0.1524439
-5.583309	224	-0.1524439
-6.02073	2247	-0.1524439
-6.02073	2248	-0.1524439
-5.209889	225	-0.1719531
-6.02073	2251	-0.1524439
-6.02073	225a	-0.1524439
-6.02073	225m	-0.1524439
-5.478633	226	-0.1835077
-6.02073	226.487	-0.1524439
-6.02073	2261	-0.1524439
-6.02073	2264	-0.1524439
-6.02073	2266	-0.1524439
-5.478633	227	-0.1524439
-6.02073	2275	-0.1524439
-6.02073	2278	-0.1524439
-5.854346	228	-0.179501
-6.02073	22m	-0.1524439
-6.02073	22nd	-0.1524439
-4.200087	23	-0.4154242
-6.02073	23,000	-0.1524439
-5.583309	23-24	-0.1965832
-6.02073	23-odd	-0.1524439
-6.02073	23-stone	-0.1524439
-6.02073	23-year-old	-0.1524439
-6.02073	23.1	-0.1524439
-6.02073	23.2	-0.1524439
-6.02073	23.33	-0.1524439
-5.721508	23.5	-0.2287167
-4.792426	230	-0.2945181
-5.854346	2300	-0.2725459
-6.02073	2302	-0.1524439
-6.02073	2303	-0.1524439
-6.02073	231	-0.1524439
-6.02073	2312	-0.1524439
-6.02073	2317	-0.1524439
-5.478633	232	-0.1835077
-6.02073	2324	-0.1524439
-6.02073	2327	-0.1524439
-6.02073	2328	-0.1524439
-6.02073	233	-0.1524439
-5.854346	2332	-0.1524439
-6.02073	2333	-0.1524439
-6.02073	2339	-0.1524439
-6.02073	234	-0.1524439
-6.02073	2340	-0.1524439
-6.02073	2341	-0.1524439
-5.394351	235	-0.2083951
-6.02073	235.4	-0.1524439
-6.02073	235m	-0.1524439
-5.394351	236	-0.1524439
-6.02073	2366	-0.1524439
-6.02073	2368	-0.1524439
-5.478633	237	-0.1965832
-6.02073	2371	-0.1524439
-5.854346	2377	-0.2725459
-5.263119	238	-0.1524439
-5.721508	239	-0.1524439
-5.854346	2390	-0.2725459
-6.02073	2392	-0.1524439
-6.02073	2396	-0.1524439
-5.583309	23rd	-0.1524439
-4.153678	24	-0.4745451
-6.02073	24,000	-0.1524439
-6.02073	24-25	-0.1524439
-6.02073	24-27	-0.1524439
-5.323797	24-hour	-0.1702934
-6.02073	24-hourlong	-0.1524439
-6.02073	24-mile	-0.1524439
-6.02073	24-year	-0.1524439
-6.02073	24-year-olds	-0.1524439
-5.854346	24.2	-0.1524439
-6.02073	24.3	-0.1524439
-5.854346	24.5	-0.1524439
-6.02073	24.6	-0.1524439
-6.02073	24.8	-0.1524439
-4.925949	240	-0.3290193
-6.02073	2400	-0.1524439
-5.854346	2408	-0.2725459
-6.02073	240m	-0.1524439
-5.854346	241	-0.2725459
-5.209889	242	-0.2138152
-5.478633	243	-0.1524439
-5.478633	245	-0.1524439
-5.854346	246	-0.1524439
-5.854346	247	-0.1524439
-5.583309	248	-0.1524439
-5.721508	249	-0.1524439
-6.02073	249.8	-0.1524439
-6.02073	24bn	-0.1524439
-6.02073	24m	-0.1524439
-5.478633	24th	-0.1739531
-3.910644	25	-0.584591
-5.854346	25,000	-0.1524439
-5.854346	25-	-0.1524439
-6.02073	25-1	-0.1524439
-6.02073	25-26	-0.1524439
-5.394351	25-30	-0.2784592
-5.854346	25-member	-0.2287167
-6.02073	25-year	-0.1524439
-5.854346	25-year-old	-0.1524439
-6.02073	25.3	-0.1524439
-6.02073	25.4	-0.1524439
-5.854346	25.5	-0.2287167
-6.02073	25.6	-0.1524439
-5.721508	25.7	-0.1524439
-4.386916	250	-0.4249708
-5.721508	250,000	-0.1524439
-6.02073	250-employee	-0.1524439
-5.263119	2500	-0.17641
-5.854346	250m	-0.1524439
-5.854346	251	-0.1524439
-5.583309	252	-0.1524439
-6.02073	252gerhard	-0.1524439
-5.854346	253	-0.2725459
-5.583309	254	-0.188908
-5.583309	255	-0.168894
-5.854346	256	-0.1524439
-6.02073	2560	-0.1524439
-6.02073	2561	-0.1524439
-6.02073	2568	-0.1524439
-6.02073	257	-0.1524439
-5.478633	258	-0.1965832
-6.02073	2580	-0.1524439
-5.721508	259	-0.2287167
-6.02073	25b	-0.1524439
-5.854346	25m	-0.1524439
-6.02073	25s	-0.1524439
-5.478633	25th	-0.1524439
-4.29863	26	-0.3912697
-5.854346	26-27	-0.1524439
-6.02073	26.10.2001	-0.1524439
-6.02073	26.5	-0.1524439
-6.02073	26.85	-0.1524439
-5.162477	260	-0.2020492
-5.854346	2600	-0.1524439
-6.02073	2605	-0.1524439
-5.478633	262	-0.1965832
-6.02073	262m	-0.1524439
-6.02073	263	-0.1524439
-5.721508	264	-0.1524439
-5.721508	265	-0.1524439
-6.02073	266	-0.1524439
-5.583309	267	-0.1965832
-6.02073	2679	-0.1524439
-5.854346	268	-0.1524439
-5.583309	269	-0.2083564
-6.02073	2699	-0.1524439
-6.02073	26p	-0.1524439
-5.583309	26th	-0.1524439
-6.02073	26votes	-0.1524439
-4.280574	27	-0.4310324
-6.02073	27,000	-0.1524439
-6.02073	27-31	-0.1524439
-6.02073	27-35	-0.1524439
-6.02073	27-37	-0.1524439
-6.02073	27-42	-0.1524439
-5.854346	27-member	-0.2725459
-6.02073	27-year	-0.1524439
-5.854346	27-year-old	-0.1524439
-6.02073	27.2	-0.1524439
-6.02073	27.3	-0.1524439
-5.854346	27.4	-0.2725459
-6.02073	27.5	-0.1524439
-6.02073	27.6	-0.1524439
-5.394351	270	-0.2580599
-5.721508	271	-0.1524439
-6.02073	271.6	-0.1524439
-5.721508	272	-0.1524439
-6.02073	2728	-0.1524439
-5.323797	273	-0.1835077
-5.854346	274	-0.1524439
-6.02073	2740	-0.1524439
-5.209889	275	-0.2649873
-6.02073	275.4	-0.1524439
-6.02073	275m	-0.1524439
-5.478633	276	-0.1835077
-6.02073	276.1	-0.1524439
-5.394351	277	-0.1524439
-6.02073	278	-0.1524439
-5.854346	279	-0.1524439
-6.02073	2792	-0.1524439
-6.02073	27m	-0.1524439
-5.854346	27th	-0.1524439
-4.200087	28	-0.4589134
-5.721508	28-30	-0.1524439
-6.02073	28-page	-0.1524439
-5.854346	28.2	-0.272546
-6.02073	28.2.	-0.1524439
-5.854346	28.5	-0.1524439
-6.02073	28.5m	-0.1524439
-6.02073	28.8	-0.1524439
-5.162477	280	-0.1676981
-6.02073	280m	-0.1524439
-6.02073	281	-0.1524439
-6.02073	2815	-0.1524439
-5.854346	282	-0.1524439
-5.854346	283	-0.1524439
-6.02073	283-page	-0.1524439
-5.854346	284	-0.1524439
-5.854346	2847	-0.2725459
-5.583309	285	-0.1965832
-5.721508	286	-0.1524439
-5.854346	287	-0.1524439
-5.854346	288	-0.1524439
-6.02073	289	-0.1524439
-6.02073	28rev	-0.1524439
-4.257611	29	-0.4176447
-5.721508	29-30	-0.2287167
-6.02073	29-31	-0.1524439
-6.02073	29-strong	-0.1524439
-6.02073	29.10.90	-0.1524439
-6.02073	29.3	-0.1524439
-6.02073	29.6	-0.1524439
-6.02073	29.9	-0.1524439
-5.323797	290	-0.3010056
-6.02073	2900	-0.1524439
-5.854346	291	-0.2725459
-6.02073	2913	-0.1524439
-5.854346	292	-0.1524439
-5.854346	293	-0.1524439
-6.02073	2936	-0.1524439
-6.02073	2939	-0.1524439
-5.478633	294	-0.1965832
-6.02073	2941	-0.1524439
-5.854346	295	-0.1524439
-5.721508	296	-0.1524439
-5.721508	297	-0.1524439
-5.721508	298	-0.2287167
-5.854346	2988	-0.2725459
-5.854346	299	-0.1524439
-6.02073	299.2	-0.1524439
-6.02073	29th	-0.1524439
-5.394351	2a	-0.2121728
-5.478633	2b	-0.2287167
-6.02073	2bn	-0.1524439
-5.721508	2c	-0.179501
-5.854346	2e	-0.1524439
-5.854346	2g	-0.1524439
-6.02073	2j3kl	-0.1524439
-5.854346	2m	-0.1524439
-5.263119	2nd	-0.173953
-3.849728	3	-0.5388266
-5.263119	3,000	-0.173953
-6.02073	3,162	-0.1524439
-6.02073	3,300	-0.1524439
-6.02073	3,4	-0.1524439
-6.02073	3,500	-0.1524439
-6.02073	3,500,000	-0.1524439
-6.02073	3,750	-0.1524439
-6.02073	3-079	-0.1524439
-6.02073	3-1000	-0.1524439
-6.02073	3-2	-0.1524439
-5.323797	3-4	-0.1835077
-5.721508	3-5	-0.2287167
-6.02073	3-6	-0.1524439
-6.02073	3-litre	-0.1524439
-6.02073	3-month	-0.1524439
-6.02073	3-track	-0.1524439
-5.721508	3-year	-0.1524439
-5.854346	3.	-0.1524439
-5.583309	3.0	-0.1524439
-5.721508	3.00	-0.2814463
-6.02073	3.03	-0.1524439
-6.02073	3.05	-0.1524439
-6.02073	3.07	-0.1524439
-5.080824	3.1	-0.3919716
-6.02073	3.10	-0.1524439
-6.02073	3.10.97	-0.1524439
-6.02073	3.12	-0.1524439
-6.02073	3.15	-0.1524439
-5.012122	3.2	-0.3929832
-6.02073	3.2.	-0.1524439
-6.02073	3.20	-0.1524439
-5.721508	3.25	-0.1524439
-6.02073	3.2bn	-0.1524439
-5.119735	3.3	-0.3315793
-5.854346	3.30	-0.2725459
-5.162477	3.4	-0.419749
-6.02073	3.40	-0.1524439
-5.583309	3.45	-0.2814463
-6.02073	3.46	-0.1524439
-6.02073	3.49	-0.1524439
-4.738449	3.5	-0.5262016
-6.02073	3.5.2001	-0.1524439
-6.02073	3.50	-0.1524439
-6.02073	3.5b	-0.1524439
-5.209889	3.6	-0.3402756
-6.02073	3.604	-0.1524439
-5.854346	3.66	-0.1524439
-6.02073	3.68	-0.1524439
-5.323797	3.7	-0.3325988
-6.02073	3.75	-0.1524439
-5.162477	3.8	-0.4997476
-6.02073	3.87	-0.1524439
-5.263119	3.9	-0.3539703
-6.02073	3.9.	-0.1524439
-6.02073	3.99	-0.1524439
-6.02073	3.the	-0.1524439
-6.02073	3.what	-0.1524439
-3.863047	30	-0.6084188
-5.394351	30,000	-0.1524439
-6.02073	30-	-0.1524439
-6.02073	30-32	-0.1524439
-5.854346	30-35	-0.1524439
-6.02073	30-40	-0.1524439
-6.02073	30-day	-0.1524439
-6.02073	30-hour	-0.1524439
-6.02073	30-member	-0.1524439
-6.02073	30-mile	-0.1524439
-5.854346	30-minute	-0.1524439
-5.854346	30-month	-0.1524439
-6.02073	30-page	-0.1524439
-6.02073	30-plus	-0.1524439
-6.02073	30-second	-0.1524439
-6.02073	30-year	-0.1524439
-6.02073	30.3	-0.1524439
-6.02073	30.4	-0.1524439
-6.02073	30.5	-0.1524439
-6.02073	30.5.	-0.1524439
-6.02073	30.8	-0.1524439
-4.241152	300	-0.4474245
-5.721508	300,000	-0.2457214
-5.721508	300-400	-0.1524439
-6.02073	300-km	-0.1524439
-6.02073	300-page	-0.1524439
-4.876737	3000	-0.1977682
-6.02073	3008	-0.1524439
-6.02073	300g	-0.1524439
-5.721508	300m	-0.1524439
-6.02073	300th	-0.1524439
-5.394351	301	-0.171953
-5.721508	302	-0.2287167
-5.854346	3021	-0.1524439
-5.854346	303	-0.2725459
-6.02073	3030	-0.1524439
-6.02073	304	-0.1524439
-5.854346	305	-0.1524439
-6.02073	3053	-0.1524439
-6.02073	305m	-0.1524439
-5.721508	306	-0.1524439
-5.478633	307	-0.1965832
-5.854346	3072	-0.1524439
-5.394351	308	-0.1957803
-6.02073	309	-0.1524439
-6.02073	309.9	-0.1524439
-6.02073	3093	-0.1524439
-6.02073	3094	-0.1524439
-6.02073	30kg	-0.1524439
-5.854346	30m	-0.1524439
-6.02073	30p	-0.1524439
-6.02073	30s	-0.1524439
-5.854346	30th	-0.2083564
-4.357792	31	-0.4008219
-5.854346	31-34	-0.1524439
-6.02073	31-year	-0.1524439
-6.02073	31.1.	-0.1524439
-6.02073	31.12.2000	-0.1524439
-6.02073	31.2	-0.1524439
-6.02073	31.4	-0.1524439
-6.02073	31.5	-0.1524439
-6.02073	31.5.2001	-0.1524439
-5.854346	31.6	-0.2725459
-6.02073	31.7	-0.1524439
-6.02073	31.8	-0.1524439
-5.583309	310	-0.2083564
-5.854346	310m	-0.2287167
-6.02073	311	-0.1524439
-5.478633	312	-0.1524439
-5.721508	313	-0.1524439
-6.02073	313th	-0.1524439
-4.812019	314	-0.5850228
-6.02073	314-vote	-0.1524439
-6.02073	314th	-0.1524439
-5.854346	315	-0.1524439
-5.721508	316	-0.1524439
-5.721508	317	-0.2340588
-6.02073	31in	-0.1524439
-6.02073	31p	-0.1524439
-5.721508	31st	-0.2287167
-4.37211	32	-0.4307186
-6.02073	32-hour	-0.1524439
-6.02073	32-year	-0.1524439
-6.02073	32.5	-0.1524439
-6.02073	32.6	-0.1524439
-5.080824	320	-0.2661417
-6.02073	320,000	-0.1524439
-5.854346	3200	-0.2725459
-6.02073	321	-0.1524439
-5.583309	322	-0.1524439
-6.02073	3227	-0.1524439
-5.478633	323	-0.2523981
-6.02073	324	-0.1524439
-6.02073	325	-0.1524439
-6.02073	3254	-0.1524439
-6.02073	3259	-0.1524439
-6.02073	326	-0.1524439
-6.02073	326.6	-0.1524439
-5.854346	327	-0.1524439
-6.02073	328	-0.1524439
-6.02073	3281	-0.1524439
-5.854346	329	-0.2725459
-6.02073	329m	-0.1524439
-4.469623	33	-0.3543918
-6.02073	33-35	-0.1524439
-6.02073	33-37	-0.1524439
-6.02073	33-metre	-0.1524439
-6.02073	33.4	-0.1524439
-6.02073	33.5	-0.1524439
-5.854346	33.6	-0.1524439
-6.02073	33.88	-0.1524439
-5.394351	330	-0.188908
-6.02073	3300	-0.1524439
-6.02073	3307	-0.1524439
-6.02073	3308	-0.1524439
-6.02073	3314	-0.1524439
-5.394351	332	-0.2287167
-6.02073	3325	-0.1524439
-5.721508	333	-0.1524439
-5.721508	334	-0.1524439
-5.721508	335	-0.1524439
-5.721508	336	-0.1524439
-6.02073	336b	-0.1524439
-5.854346	337	-0.1524439
-5.323797	338	-0.2138152
-5.721508	339	-0.2287167
-6.02073	3392	-0.1524439
-5.854346	33rd	-0.1524439
-4.426303	34	-0.3516467
-6.02073	34-3	-0.1524439
-6.02073	34-person	-0.1524439
-6.02073	34.3	-0.1524439
-6.02073	34.5	-0.1524439
-6.02073	34.the	-0.1524439
-5.323797	340	-0.2794097
-6.02073	3400	-0.1524439
-6.02073	341	-0.1524439
-6.02073	34102	-0.1524439
-6.02073	342	-0.1524439
-6.02073	344	-0.1524439
-5.854346	3448	-0.1524439
-5.583309	345	-0.1524439
-5.854346	347	-0.1524439
-6.02073	3479	-0.1524439
-6.02073	348	-0.1524439
-6.02073	348.2m	-0.1524439
-5.854346	349	-0.1524439
-4.149298	35	-0.4731746
-5.721508	35,000	-0.1524439
-5.854346	35-40	-0.1524439
-6.02073	35-45	-0.1524439
-5.721508	35-hour	-0.2457213
-6.02073	35-year-old	-0.1524439
-6.02073	35.6	-0.1524439
-4.607917	350	-0.3812852
-6.02073	350,000	-0.1524439
-5.854346	3500	-0.1524439
-6.02073	3502	-0.1524439
-6.02073	350bn	-0.1524439
-6.02073	350m	-0.1524439
-5.721508	351	-0.1524439
-6.02073	352	-0.1524439
-5.721508	353	-0.2287167
-6.02073	353m	-0.1524439
-6.02073	354	-0.1524439
-6.02073	355	-0.1524439
-6.02073	357	-0.1524439
-5.721508	358	-0.1524439
-6.02073	3582	-0.1524439
-5.854346	359	-0.1524439
-6.02073	35m	-0.1524439
-6.02073	35th	-0.1524439
-4.418135	36	-0.3433507
-6.02073	36,000	-0.1524439
-6.02073	36-39	-0.1524439
-6.02073	36-month	-0.1524439
-6.02073	36.4	-0.1524439
-6.02073	36.5	-0.1524439
-4.900646	360	-0.3115712
-6.02073	3600	-0.1524439
-5.854346	361	-0.1524439
-5.721508	362	-0.1524439
-6.02073	362m	-0.1524439
-5.854346	363	-0.1524439
-6.02073	3630	-0.1524439
-6.02073	3632	-0.1524439
-5.583309	365	-0.1524439
-6.02073	3652	-0.1524439
-6.02073	3653	-0.1524439
-5.854346	366	-0.1524439
-6.02073	3662	-0.1524439
-6.02073	3663	-0.1524439
-6.02073	3665	-0.1524439
-6.02073	366a	-0.1524439
-5.721508	367	-0.334645
-5.583309	368	-0.1524439
-5.583309	369	-0.2083564
-6.02073	3699	-0.1524439
-4.434628	37	-0.3896864
-6.02073	37-year-old	-0.1524439
-6.02073	37.1	-0.1524439
-5.854346	37.2	-0.2725459
-6.02073	37.3	-0.1524439
-6.02073	37.4	-0.1524439
-6.02073	37.5	-0.1524439
-6.02073	37.6	-0.1524439
-4.832539	370	-0.5350888
-6.02073	3700	-0.1524439
-5.854346	370m	-0.1524439
-5.721508	372	-0.1524439
-6.02073	373	-0.1524439
-6.02073	374	-0.1524439
-5.263119	375	-0.4565181
-5.721508	376	-0.1524439
-5.721508	3760	-0.2814463
-6.02073	3763	-0.1524439
-5.854346	377	-0.152444
-5.721508	378	-0.1524439
-5.583309	379	-0.1965832
-4.410118	38	-0.3506644
-6.02073	38,000	-0.1524439
-6.02073	38.35	-0.1524439
-6.02073	38.5	-0.1524439
-5.012122	380	-0.4545504
-6.02073	380m	-0.1524439
-5.854346	381	-0.1524439
-5.854346	382	-0.1524439
-5.583309	3820	-0.4595837
-6.02073	3821	-0.1524439
-6.02073	383	-0.1524439
-5.478633	384	-0.1965832
-5.394351	385	-0.2287167
-6.02073	386	-0.1524439
-5.478633	388	-0.1524439
-6.02073	3883	-0.1524439
-5.854346	389	-0.1524439
-6.02073	38m	-0.1524439
-6.02073	38th	-0.1524439
-4.633723	39	-0.3232501
-6.02073	39-year	-0.1524439
-6.02073	39.2	-0.1524439
-6.02073	39.46	-0.1524439
-5.854346	39.5	-0.1524439
-6.02073	39.6	-0.1524439
-5.721508	390	-0.152444
-6.02073	3900	-0.1524439
-5.721508	391	-0.17641
-6.02073	3911	-0.1524439
-5.854346	392	-0.1524439
-5.854346	3922	-0.2287167
-5.854346	393	-0.1524439
-6.02073	3933	-0.1524439
-5.721508	394	-0.1965832
-6.02073	397	-0.1524439
-6.02073	3975	-0.1524439
-6.02073	3976	-0.1524439
-6.02073	398	-0.1524439
-5.854346	399	-0.1524439
-6.02073	39m	-0.1524439
-6.02073	39th	-0.1524439
-5.080824	3a	-0.2956439
-6.02073	3and	-0.1524439
-5.394351	3b	-0.2083564
-6.02073	3c	-0.1524439
-5.854346	3d	-0.1524439
-6.02073	3db	-0.1524439
-4.981458	3g	-0.2672743
-5.854346	3m	-0.1524439
-6.02073	3no	-0.1524439
-5.854346	3rd	-0.1524439
-3.920823	4	-0.5173616
-5.854346	4,000	-0.1524439
-6.02073	4,177,250	-0.1524439
-6.02073	4,600	-0.1524439
-6.02073	4-1	-0.1524439
-6.02073	4-300	-0.1524439
-5.721508	4-5	-0.1524439
-6.02073	4-hour	-0.1524439
-6.02073	4.	-0.1524439
-5.583309	4.00	-0.3087305
-6.02073	4.05	-0.1524439
-5.323797	4.1	-0.3010056
-6.02073	4.10	-0.1524439
-6.02073	4.13	-0.1524439
-5.854346	4.15	-0.2725459
-6.02073	4.18	-0.1524439
-6.02073	4.1a	-0.1524439
-5.721508	4.1c	-0.1524439
-5.394351	4.2	-0.2169656
-6.02073	4.24	-0.1524439
-6.02073	4.25	-0.1524439
-5.162477	4.3	-0.2523981
-5.583309	4.30	-0.2580599
-6.02073	4.35	-0.1524439
-6.02073	4.39	-0.1524439
-5.394351	4.4	-0.2580599
-6.02073	4.40	-0.1524439
-5.721508	4.45	-0.2725459
-6.02073	4.49	-0.1524439
-4.876737	4.5	-0.6550003
-6.02073	4.50	-0.1524439
-6.02073	4.55	-0.1524439
-6.02073	4.59	-0.1524439
-5.162477	4.6	-0.2904539
-5.323797	4.7	-0.2963921
-6.02073	4.7.3	-0.1524439
-5.854346	4.72	-0.1524439
-6.02073	4.74	-0.1524439
-6.02073	4.75	-0.1524439
-6.02073	4.7m	-0.1524439
-5.478633	4.8	-0.2340588
-6.02073	4.875	-0.1524439
-5.394351	4.9	-0.3315794
-3.978569	40	-0.5985845
-5.583309	40,000	-0.1524439
-6.02073	40-	-0.1524439
-6.02073	40-45	-0.1524439
-5.583309	40-50	-0.2083564
-6.02073	40-60	-0.1524439
-5.394351	40-tonne	-0.188908
-5.854346	40-year	-0.1524439
-6.02073	40.3.3	-0.1524439
-5.854346	40.5	-0.1524439
-6.02073	40.7	-0.1524439
-5.854346	40.8	-0.2725459
-4.311098	400	-0.4209964
-5.394351	400,000	-0.188908
-6.02073	400-year-old	-0.1524439
-5.209889	4000	-0.17641
-6.02073	400m	-0.1524439
-6.02073	401	-0.1524439
-5.721508	402	-0.1524439
-6.02073	403	-0.1524439
-5.721508	404	-0.1524439
-6.02073	4045	-0.1524439
-5.854346	405	-0.1524439
-5.854346	406	-0.1524439
-5.854346	4064	-0.2725459
-5.394351	407	-0.1524439
-5.478633	407a	-0.2523981
-5.583309	408	-0.1524439
-5.583309	409	-0.2121728
-6.02073	40m	-0.1524439
-5.721508	40s	-0.2287167
-5.854346	40th	-0.1524439
-4.538595	41	-0.2885411
-6.02073	41,000	-0.1524439
-6.02073	41.1	-0.1524439
-6.02073	41.2	-0.1524439
-5.721508	41.5	-0.1524439
-5.478633	410	-0.2340588
-6.02073	4101	-0.1524439
-5.854346	411	-0.1524439
-5.854346	412	-0.1524439
-5.854346	414	-0.1524439
-5.854346	415	-0.2725459
-6.02073	416	-0.1524439
-6.02073	417	-0.1524439
-6.02073	418	-0.1524439
-6.02073	41a	-0.1524439
-4.488237	42	-0.3373797
-5.478633	42,000	-0.3783563
-6.02073	42-44	-0.1524439
-6.02073	42.2	-0.1524439
-6.02073	42.4	-0.1524439
-6.02073	42.5	-0.1524439
-6.02073	42.6	-0.1524439
-6.02073	42.8	-0.1524439
-6.02073	42.82	-0.1524439
-5.323797	420	-0.1835077
-5.854346	421	-0.1524439
-5.854346	422	-0.1524439
-5.854346	423	-0.1524439
-5.583309	424	-0.1524439
-6.02073	4244.6	-0.1524439
-5.162477	425	-0.219186
-5.854346	4253	-0.2725459
-5.583309	428	-0.1524439
-5.721508	429	-0.1524439
-4.47883	43	-0.3556641
-5.583309	43,000	-0.2814463
-6.02073	43-46	-0.1524439
-6.02073	43.4	-0.1524439
-5.394351	430	-0.3010056
-5.854346	432	-0.1524439
-5.721508	433	-0.1524439
-5.854346	434	-0.1524439
-6.02073	435	-0.1524439
-6.02073	435m	-0.1524439
-5.721508	436	-0.1524439
-5.721508	437	-0.1524439
-5.721508	438	-0.1524439
-5.854346	439	-0.1524439
-6.02073	43m	-0.1524439
-4.528045	44	-0.3345213
-6.02073	44-45	-0.1524439
-6.02073	44-tonne	-0.1524439
-6.02073	44-tonners	-0.1524439
-6.02073	44-year-old	-0.1524439
-5.854346	44.3	-0.272546
-6.02073	44.4	-0.1524439
-5.854346	44.7	-0.2725459
-5.854346	44.8	-0.1524439
-5.323797	440	-0.164967
-6.02073	440-230	-0.1524439
-6.02073	4400	-0.1524439
-5.854346	442	-0.1524439
-5.721508	443	-0.1524439
-6.02073	444	-0.1524439
-6.02073	445	-0.1524439
-6.02073	445m	-0.1524439
-6.02073	447	-0.1524439
-5.721508	449	-0.1524439
-6.02073	4490	-0.1524439
-6.02073	44a	-0.1524439
-6.02073	44th	-0.1524439
-4.343931	45	-0.4628571
-6.02073	45,000	-0.1524439
-6.02073	45-47	-0.1524439
-6.02073	45-foot	-0.1524439
-6.02073	45-kilometre	-0.1524439
-6.02073	45.1	-0.1524439
-6.02073	45.2	-0.1524439
-6.02073	45.7	-0.1524439
-4.792426	450	-0.420207
-5.854346	450,000	-0.2725459
-6.02073	45004	-0.1524439
-6.02073	45011	-0.1524439
-5.854346	450m	-0.1524439
-5.854346	453	-0.1524439
-6.02073	454	-0.1524439
-5.583309	455	-0.1524439
-6.02073	456	-0.1524439
-5.854346	457	-0.1524439
-5.854346	458	-0.1524439
-5.854346	459	-0.1524439
-6.02073	45m	-0.1524439
-6.02073	45th	-0.1524439
-4.620628	46	-0.3201629
-6.02073	46-53	-0.1524439
-6.02073	46.3	-0.1524439
-5.394351	460	-0.1835077
-5.854346	461	-0.1524439
-5.721508	462	-0.1524439
-6.02073	463	-0.1524439
-5.854346	464	-0.1524439
-5.854346	465	-0.2725459
-5.854346	467	-0.1524439
-5.583309	468	-0.1524439
-6.02073	469	-0.1524439
-4.549407	47	-0.338165
-6.02073	47-50	-0.1524439
-6.02073	47.1	-0.1524439
-5.583309	47.5	-0.2725459
-5.394351	470	-0.1835077
-5.854346	471	-0.1524439
-6.02073	473	-0.1524439
-5.583309	475	-0.2083564
-6.02073	476	-0.1524439
-6.02073	477	-0.1524439
-6.02073	478	-0.1524439
-4.394513	48	-0.4184109
-5.721508	48-hour	-0.2580599
-6.02073	48-month	-0.1524439
-6.02073	48.3	-0.1524439
-6.02073	48.7	-0.1524439
-5.721508	480	-0.1524439
-6.02073	481	-0.1524439
-5.721508	482	-0.1524439
-6.02073	484.17	-0.1524439
-5.583309	485	-0.2083564
-6.02073	486	-0.1524439
-5.721508	487	-0.2287167
-6.02073	488	-0.1524439
-5.854346	489	-0.1524439
-4.607917	49	-0.3240697
-6.02073	49.2	-0.1524439
-6.02073	49.5	-0.1524439
-5.854346	49.7	-0.272546
-5.721508	490	-0.1524439
-5.854346	492	-0.1524439
-5.721508	493	-0.1524439
-6.02073	496	-0.1524439
-6.02073	49c	-0.1524439
-5.721508	4a	-0.1524439
-6.02073	4b	-0.1524439
-6.02073	4bn	-0.1524439
-5.854346	4c	-0.1524439
-6.02073	4g	-0.1524439
-6.02073	4m	-0.1524439
-6.02073	4mm	-0.1524439
-6.02073	4mta	-0.1524439
-5.854346	4th	-0.1524439
-3.849728	5	-0.5340641
-5.721508	5,000	-0.1524439
-6.02073	5,11	-0.1524439
-6.02073	5,3	-0.1524439
-6.02073	5,318	-0.1524439
-6.02073	5-	-0.1524439
-6.02073	5-0138	-0.1524439
-6.02073	5-0142	-0.1524439
-6.02073	5-0148	-0.1524439
-6.02073	5-0151	-0.1524439
-6.02073	5-0225	-0.1524439
-6.02073	5-0410	-0.1524439
-6.02073	5-0421	-0.1524439
-6.02073	5-0428	-0.1524439
-6.02073	5-0433	-0.1524439
-6.02073	5-0435	-0.1524439
-5.478633	5-10	-0.2523981
-6.02073	5-510	-0.1524439
-6.02073	5-511	-0.1524439
-5.721508	5-6	-0.1524439
-6.02073	5-7	-0.1524439
-6.02073	5-9	-0.1524439
-6.02073	5-9-2001	-0.1524439
-6.02073	5-euro	-0.1524439
-5.721508	5-year	-0.1965832
-5.854346	5.	-0.1524439
-5.721508	5.00	-0.2083564
-6.02073	5.05	-0.1524439
-5.721508	5.1	-0.1524439
-5.721508	5.10	-0.2287167
-6.02073	5.10.2001	-0.1524439
-5.854346	5.15	-0.2725459
-5.583309	5.2	-0.2523981
-6.02073	5.20	-0.1524439
-6.02073	5.22	-0.1524439
-6.02073	5.23	-0.1524439
-6.02073	5.24	-0.1524439
-6.02073	5.25	-0.1524439
-6.02073	5.27	-0.1524439
-6.02073	5.28	-0.1524439
-5.394351	5.3	-0.635675
-5.045116	5.30	-0.4770968
-6.02073	5.30.	-0.1524439
-6.02073	5.30.p.m	-0.1524439
-5.721508	5.35	-0.1524439
-6.02073	5.36	-0.1524439
-5.854346	5.37	-0.1524439
-5.080824	5.4	-0.4902631
-6.02073	5.40	-0.1524439
-5.721508	5.45	-0.2814463
-4.925949	5.5	-0.5549582
-6.02073	5.50	-0.1524439
-6.02073	5.51	-0.1524439
-6.02073	5.53	-0.1524439
-6.02073	5.55	-0.1524439
-6.02073	5.58	-0.1524439
-5.583309	5.6	-0.2083564
-5.478633	5.7	-0.2523981
-5.854346	5.75	-0.272546
-5.583309	5.8	-0.2083564
-6.02073	5.877	-0.1524439
-6.02073	5.8m	-0.1524439
-5.209889	5.9	-0.6336288
-6.02073	5.98-221-29	-0.1524439
-3.849728	50	-0.6103944
-5.478633	50,000	-0.1965832
-5.854346	50-50	-0.1524439
-5.721508	50-60	-0.1524439
-5.854346	50-64	-0.1524439
-6.02073	50-70	-0.1524439
-6.02073	50-80	-0.1524439
-6.02073	50-cent	-0.1524439
-6.02073	50-kg	-0.1524439
-6.02073	50-kilometre	-0.1524439
-6.02073	50-megawatt	-0.1524439
-6.02073	50-nautical-mile	-0.1524439
-6.02073	50-schilling	-0.1524439
-6.02073	50-year	-0.1524439
-5.854346	50-year-old	-0.1524439
-6.02073	50.1	-0.1524439
-5.721508	50.5	-0.2287167
-4.123911	500	-0.45833
-5.478633	500,000	-0.1524439
-6.02073	500-3	-0.1524439
-5.854346	500-600	-0.2725459
-6.02073	500-700	-0.1524439
-6.02073	500-euro	-0.1524439
-6.02073	500-kilometre	-0.1524439
-5.478633	5000	-0.1524439
-6.02073	5000-year-old	-0.1524439
-5.583309	500m	-0.1835077
-6.02073	501	-0.1524439
-6.02073	502	-0.1524439
-5.721508	503	-0.1524439
-5.854346	504	-0.2725459
-6.02073	505	-0.1524439
-6.02073	506	-0.1524439
-6.02073	506bn	-0.1524439
-5.721508	507	-0.1524439
-5.854346	508	-0.1524439
-5.854346	509	-0.1524439
-5.854346	50g	-0.1524439
-5.721508	50m	-0.1524439
-6.02073	50page	-0.1524439
-5.721508	50s	-0.1524439
-5.583309	50th	-0.3783563
-4.647224	51	-0.314048
-6.02073	51-55	-0.1524439
-6.02073	51.7	-0.1524439
-5.721508	510	-0.1524439
-6.02073	511	-0.1524439
-6.02073	5126	-0.1524439
-6.02073	513	-0.1524439
-6.02073	514	-0.1524439
-6.02073	515	-0.1524439
-5.854346	516	-0.1524439
-5.854346	517	-0.1524439
-6.02073	5178	-0.1524439
-6.02073	5179	-0.1524439
-6.02073	518	-0.1524439
-6.02073	51st	-0.1524439
-4.528045	52	-0.3831495
-6.02073	52.4	-0.1524439
-6.02073	52.6	-0.1524439
-6.02073	52.8	-0.1524439
-6.02073	52.9	-0.1524439
-5.323797	520	-0.2169656
-6.02073	521	-0.1524439
-5.854346	522	-0.1524439
-5.721508	523	-0.1524439
-6.02073	5232007	-0.1524439
-6.02073	524	-0.1524439
-5.583309	525	-0.1524439
-5.721508	526	-0.1524439
-5.721508	527	-0.1524439
-5.854346	529	-0.1524439
-6.02073	52nd	-0.1524439
-4.633723	53	-0.3059501
-6.02073	53-59	-0.1524439
-5.854346	53.1	-0.272546
-5.394351	530	-0.2051159
-6.02073	530,000	-0.1524439
-6.02073	531	-0.1524439
-6.02073	532	-0.1524439
-5.854346	533	-0.1524439
-6.02073	534	-0.1524439
-5.721508	535	-0.1524439
-5.583309	537	-0.1524439
-6.02073	538	-0.1524439
-5.721508	539	-0.2287167
-6.02073	53m	-0.1524439
-5.721508	53rd	-0.2287167
-4.675556	54	-0.338741
-6.02073	54.9	-0.1524439
-5.854346	540	-0.1524439
-6.02073	540m	-0.1524439
-6.02073	541	-0.1524439
-6.02073	541m	-0.1524439
-5.854346	542	-0.1524439
-5.854346	544	-0.1524439
-5.721508	545	-0.1524439
-6.02073	547	-0.1524439
-5.263119	548	-0.2121728
-5.854346	549	-0.1524439
-5.854346	54th	-0.188908
-4.37211	55	-0.4289732
-6.02073	55-57	-0.1524439
-6.02073	55.5	-0.1524439
-6.02073	55.57	-0.1524439
-5.162477	550	-0.3090828
-6.02073	551	-0.1524439
-6.02073	552	-0.1524439
-5.854346	553	-0.1524439
-6.02073	554	-0.1524439
-6.02073	555	-0.1524439
-5.854346	556	-0.1524439
-5.854346	557	-0.1524439
-6.02073	558	-0.1524439
-6.02073	559	-0.1524439
-6.02073	55by	-0.1524439
-5.854346	55th	-0.2083564
-4.620628	56	-0.3122156
-6.02073	56-hour	-0.1524439
-6.02073	56.3	-0.1524439
-6.02073	56.6	-0.1524439
-5.394351	560	-0.3010056
-6.02073	560m	-0.1524439
-5.854346	561	-0.1524439
-5.394351	562	-0.3315794
-6.02073	564	-0.1524439
-6.02073	565	-0.1524439
-5.854346	566	-0.1524439
-6.02073	567	-0.1524439
-6.02073	568	-0.1524439
-5.854346	569	-0.2725459
-6.02073	56th	-0.1524439
-4.647224	57	-0.3485006
-6.02073	57.5	-0.1524439
-5.854346	570	-0.1524439
-6.02073	571	-0.1524439
-5.854346	574	-0.2725459
-5.854346	576	-0.1524439
-6.02073	577	-0.1524439
-5.854346	578	-0.1524439
-6.02073	579	-0.1524439
-6.02073	579.5	-0.1524439
-5.583309	57th	-0.2287167
-4.633723	58	-0.3506234
-6.02073	58-hour	-0.1524439
-6.02073	58.8	-0.1524439
-5.394351	580	-0.2784592
-6.02073	580m	-0.1524439
-5.854346	582	-0.1524439
-5.721508	583	-0.1524439
-6.02073	584	-0.1524439
-6.02073	585	-0.1524439
-6.02073	586	-0.1524439
-6.02073	588	-0.1524439
-5.854346	589	-0.1524439
-5.854346	58th	-0.1524439
-4.792426	59	-0.2935055
-5.583309	590	-0.1524439
-5.854346	592	-0.1524439
-5.854346	593	-0.1524439
-6.02073	594blank	-0.1524439
-5.721508	595	-0.1524439
-5.854346	596	-0.1524439
-6.02073	598	-0.1524439
-5.854346	599	-0.1524439
-5.854346	59th	-0.1524439
-5.478633	5a	-0.1950517
-5.162477	5b	-0.2319141
-6.02073	5bis	-0.1524439
-5.854346	5g	-0.1524439
-5.854346	5m	-0.1524439
-5.583309	5th	-0.2017764
-6.02073	5th-century	-0.1524439
-4.041773	6	-0.4951973
-5.854346	6,000	-0.1524439
-6.02073	6,253	-0.1524439
-6.02073	6,500	-0.1524439
-5.721508	6-	-0.334645
-6.02073	6-10	-0.1524439
-5.854346	6-12	-0.1524439
-6.02073	6-7	-0.1524439
-6.02073	6-billion	-0.1524439
-6.02073	6-litre	-0.1524439
-6.02073	6-months	-0.1524439
-6.02073	6-region	-0.1524439
-5.854346	6-week	-0.2287167
-5.323797	6.00	-0.3160518
-6.02073	6.05	-0.1524439
-6.02073	6.07	-0.1524439
-6.02073	6.1	-0.1524439
-6.02073	6.10	-0.1524439
-5.854346	6.14	-0.1524439
-5.583309	6.15	-0.2814463
-5.263119	6.2	-0.2017764
-6.02073	6.20	-0.1524439
-6.02073	6.25	-0.1524439
-5.119735	6.3	-0.3552655
-6.02073	6.3.	-0.1524439
-5.394351	6.30	-0.3325989
-6.02073	6.35	-0.1524439
-5.323797	6.4	-0.3010056
-6.02073	6.4.2001	-0.1524439
-6.02073	6.40	-0.1524439
-6.02073	6.44	-0.1524439
-6.02073	6.45	-0.1524439
-6.02073	6.47	-0.1524439
-4.900646	6.5	-0.4892325
-5.854346	6.50	-0.1524439
-6.02073	6.55	-0.1524439
-6.02073	6.5m	-0.1524439
-5.854346	6.6	-0.1524439
-6.02073	6.635	-0.1524439
-5.583309	6.7	-0.1524439
-6.02073	6.7.2001	-0.1524439
-5.583309	6.8	-0.2083564
-5.854346	6.9	-0.2725459
-4.066263	60	-0.5767807
-5.854346	60-70	-0.272546
-5.854346	60-80	-0.272546
-6.02073	60-day	-0.1524439
-6.02073	60-year	-0.1524439
-4.418135	600	-0.3997833
-5.854346	600,000	-0.1524439
-6.02073	600-800	-0.1524439
-5.583309	6000	-0.1524439
-5.854346	600m	-0.1524439
-5.854346	601	-0.1524439
-5.854346	604	-0.1524439
-5.721508	605	-0.1524439
-5.854346	607	-0.2725459
-5.854346	609	-0.1524439
-6.02073	60b	-0.1524439
-5.854346	60m	-0.1524439
-5.721508	60s	-0.2340588
-6.02073	60th	-0.1524439
-4.925949	61	-0.3123907
-6.02073	61,000	-0.1524439
-5.478633	610	-0.1524439
-5.854346	611	-0.1524439
-5.854346	6119	-0.2725459
-5.854346	612	-0.1524439
-5.394351	613	-0.2340588
-5.854346	614	-0.2725459
-5.721508	615	-0.1524439
-6.02073	615blank	-0.1524439
-6.02073	618	-0.1524439
-6.02073	619	-0.1524439
-4.675556	62	-0.3300809
-6.02073	62-77	-0.1524439
-5.854346	62.5	-0.1524439
-6.02073	62.6	-0.1524439
-5.583309	620	-0.1524439
-6.02073	621	-0.1524439
-6.02073	623	-0.1524439
-5.854346	624	-0.1524439
-5.854346	625	-0.1524439
-5.162477	626	-0.4973002
-6.02073	627bn	-0.1524439
-6.02073	628	-0.1524439
-6.02073	6281	-0.1524439
-4.773678	63	-0.3077955
-5.854346	63.2	-0.1524439
-6.02073	63.4	-0.1524439
-5.854346	63.5	-0.2725459
-5.394351	630	-0.188908
-6.02073	631	-0.1524439
-6.02073	633	-0.1524439
-6.02073	634	-0.1524439
-6.02073	635	-0.1524439
-6.02073	636	-0.1524439
-5.854346	637	-0.1524439
-5.721508	639	-0.1524439
-6.02073	63a	-0.1524439
-6.02073	63m	-0.1524439
-4.812019	64	-0.2778923
-6.02073	64,000	-0.1524439
-6.02073	64-thousand-dollar	-0.1524439
-5.583309	640	-0.2083564
-6.02073	6400	-0.1524439
-6.02073	642	-0.1524439
-6.02073	643	-0.1524439
-6.02073	645	-0.1524439
-6.02073	646	-0.1524439
-5.721508	647	-0.1524439
-5.854346	648	-0.1524439
-6.02073	649	-0.1524439
-4.37211	65	-0.4695687
-6.02073	65,000	-0.1524439
-6.02073	65-year-old	-0.1524439
-4.900646	650	-0.1959346
-6.02073	650.5	-0.1524439
-5.854346	651	-0.1524439
-6.02073	652	-0.1524439
-6.02073	653	-0.1524439
-5.583309	654	-0.1524439
-6.02073	655	-0.1524439
-6.02073	656	-0.1524439
-5.854346	657	-0.1524439
-6.02073	658	-0.1524439
-5.854346	659	-0.1524439
-5.854346	65th	-0.2725459
-4.571874	66	-0.3457633
-6.02073	66.3	-0.1524439
-6.02073	66.5	-0.1524439
-6.02073	66.6	-0.1524439
-6.02073	66.7	-0.1524439
-6.02073	66.91	-0.1524439
-6.02073	660	-0.1524439
-6.02073	661	-0.1524439
-5.854346	662	-0.1524439
-6.02073	665	-0.1524439
-6.02073	666	-0.1524439
-6.02073	667	-0.1524439
-4.738449	67	-0.3317766
-6.02073	67-year-old	-0.1524439
-6.02073	67.176m	-0.1524439
-5.721508	670	-0.1524439
-6.02073	671	-0.1524439
-5.854346	674	-0.1524439
-5.854346	675	-0.1524439
-6.02073	676	-0.1524439
-6.02073	677	-0.1524439
-5.854346	678	-0.1524439
-5.854346	679	-0.1524439
-4.792426	68	-0.2646306
-6.02073	68.1	-0.1524439
-6.02073	68.4	-0.1524439
-5.854346	680	-0.1524439
-6.02073	684	-0.1524439
-5.583309	685	-0.2083564
-5.854346	686	-0.1524439
-5.721508	687	-0.188908
-5.721508	688	-0.2287167
-6.02073	6890	-0.1524439
-4.854076	69	-0.2884487
-6.02073	69.1	-0.1524439
-6.02073	69.7	-0.1524439
-5.721508	690	-0.1524439
-6.02073	690-	-0.1524439
-6.02073	6900	-0.1524439
-6.02073	696	-0.1524439
-6.02073	698	-0.1524439
-5.854346	699	-0.1524439
-5.721508	6a	-0.1524439
-6.02073	6b	-0.1524439
-6.02073	6bn	-0.1524439
-6.02073	6c	-0.1524439
-5.854346	6m	-0.1524439
-6.02073	6mm	-0.1524439
-5.583309	6th	-0.179501
-4.11982	7	-0.4561537
-5.721508	7,000	-0.1524439
-5.323797	7,500	-0.2169656
-5.854346	7-10	-0.1524439
-6.02073	7-18	-0.1524439
-5.854346	7-8	-0.1524439
-6.02073	7-800	-0.1524439
-5.854346	7-point	-0.272546
-6.02073	7-year	-0.1524439
-6.02073	7.	-0.1524439
-5.478633	7.00	-0.345406
-6.02073	7.02	-0.1524439
-6.02073	7.03	-0.1524439
-6.02073	7.05	-0.1524439
-6.02073	7.07	-0.1524439
-5.721508	7.1	-0.2287167
-5.854346	7.10	-0.2287167
-6.02073	7.13	-0.1524439
-6.02073	7.14	-0.1524439
-6.02073	7.15	-0.1524439
-6.02073	7.17	-0.1524439
-6.02073	7.18	-0.1524439
-5.323797	7.2	-0.2580599
-5.854346	7.20	-0.2287167
-6.02073	7.21	-0.1524439
-6.02073	7.22	-0.1524439
-6.02073	7.25	-0.1524439
-6.02073	7.27	-0.1524439
-6.02073	7.28	-0.1524439
-6.02073	7.3	-0.1524439
-5.478633	7.30	-0.3160518
-6.02073	7.35	-0.1524439
-5.721508	7.4	-0.2287167
-6.02073	7.40	-0.1524439
-6.02073	7.42	-0.1524439
-6.02073	7.43	-0.1524439
-6.02073	7.44	-0.1524439
-6.02073	7.45	-0.1524439
-5.080824	7.5	-0.4300195
-6.02073	7.50	-0.1524439
-6.02073	7.55	-0.1524439
-6.02073	7.59	-0.1524439
-5.394351	7.6	-0.3315794
-5.721508	7.7	-0.2287167
-5.721508	7.8	-0.2287167
-6.02073	7.9	-0.1524439
-6.02073	7.9.2001	-0.1524439
-4.136419	70	-0.5476682
-5.721508	70,000	-0.1524439
-6.02073	70,000-character	-0.1524439
-5.721508	70-100	-0.1524439
-6.02073	70-30	-0.1524439
-6.02073	70-75	-0.1524439
-6.02073	70-80	-0.1524439
-6.02073	70-hour	-0.1524439
-6.02073	70-year-old	-0.1524439
-6.02073	70.3	-0.1524439
-4.451773	700	-0.3651944
-6.02073	700,000	-0.1524439
-6.02073	700-page	-0.1524439
-5.394351	7000	-0.1524439
-6.02073	700m	-0.1524439
-6.02073	701	-0.1524439
-6.02073	702	-0.1524439
-6.02073	703	-0.1524439
-5.854346	706	-0.1524439
-5.854346	707	-0.1524439
-6.02073	708	-0.1524439
-6.02073	70m	-0.1524439
-5.583309	70s	-0.2580599
-4.675556	71	-0.2731131
-6.02073	71.7	-0.1524439
-6.02073	710	-0.1524439
-5.854346	711	-0.1524439
-6.02073	713	-0.1524439
-5.854346	7138	-0.2725459
-5.854346	714	-0.1524439
-6.02073	715	-0.1524439
-5.721508	717	-0.2287167
-6.02073	717,000	-0.1524439
-6.02073	7179	-0.1524439
-6.02073	7180	-0.1524439
-4.755707	72	-0.3108796
-6.02073	72.54	-0.1524439
-6.02073	72.8	-0.1524439
-5.394351	720	-0.188908
-6.02073	720m	-0.1524439
-6.02073	725	-0.1524439
-6.02073	726	-0.1524439
-5.721508	728	-0.1524439
-6.02073	729	-0.1524439
-4.792426	73	-0.2783187
-6.02073	73.1	-0.1524439
-6.02073	73.5	-0.1524439
-6.02073	73.6	-0.1524439
-6.02073	73.9	-0.1524439
-6.02073	730	-0.1524439
-5.854346	731	-0.1524439
-5.583309	732	-0.2523981
-6.02073	733	-0.1524439
-6.02073	735	-0.1524439
-6.02073	737	-0.1524439
-6.02073	738	-0.1524439
-5.854346	739	-0.1524439
-4.900646	74	-0.308435
-6.02073	74-year-old	-0.1524439
-6.02073	74.7	-0.1524439
-5.854346	740	-0.1524439
-6.02073	741	-0.1524439
-6.02073	742	-0.1524439
-6.02073	746	-0.1524439
-5.854346	747	-0.1524439
-6.02073	748	-0.1524439
-6.02073	7494	-0.1524439
-4.241152	75	-0.5572178
-5.854346	75,000	-0.1524439
-5.854346	75-80	-0.272546
-4.952817	750	-0.3493081
-6.02073	750m	-0.1524439
-6.02073	751	-0.1524439
-5.721508	755	-0.1524439
-6.02073	755m	-0.1524439
-6.02073	756	-0.1524439
-5.854346	757	-0.1524439
-5.721508	758	-0.1524439
-6.02073	75cl	-0.1524439
-6.02073	75m	-0.1524439
-4.792426	76	-0.3255455
-6.02073	76-80	-0.1524439
-6.02073	76.89	-0.1524439
-5.854346	760	-0.1524439
-6.02073	760.48	-0.1524439
-6.02073	763	-0.1524439
-6.02073	764	-0.1524439
-5.721508	765	-0.2287167
-6.02073	766	-0.1524439
-6.02073	769	-0.1524439
-4.755707	77	-0.3114171
-6.02073	77-year-old	-0.1524439
-6.02073	77.5	-0.1524439
-6.02073	77.7	-0.1524439
-6.02073	770	-0.1524439
-6.02073	770,000	-0.1524439
-6.02073	774	-0.1524439
-6.02073	775	-0.1524439
-6.02073	777	-0.1524439
-6.02073	778	-0.1524439
-4.773678	78	-0.2789214
-6.02073	78.94	-0.1524439
-5.209889	780	-0.2051159
-6.02073	783	-0.1524439
-5.854346	784	-0.1524439
-6.02073	7851	-0.1524439
-6.02073	7852	-0.1524439
-6.02073	786	-0.1524439
-6.02073	787	-0.1524439
-6.02073	787.5	-0.1524439
-6.02073	787.5m	-0.1524439
-5.854346	788	-0.1524439
-6.02073	78m	-0.1524439
-4.792426	79	-0.2989588
-6.02073	79-81	-0.1524439
-6.02073	790	-0.1524439
-6.02073	791	-0.1524439
-5.854346	793	-0.2725459
-6.02073	795	-0.1524439
-6.02073	79a	-0.1524439
-5.721508	7a	-0.188908
-5.854346	7d	-0.1524439
-5.854346	7m	-0.1524439
-5.721508	7th	-0.1835077
-4.055598	8	-0.5037554
-5.583309	8,000	-0.1524439
-6.02073	8,500	-0.1524439
-6.02073	8,700	-0.1524439
-5.854346	8-10	-0.1524439
-6.02073	8-35	-0.1524439
-6.02073	8-5	-0.1524439
-6.02073	8-8	-0.1524439
-5.854346	8-9	-0.1524439
-5.854346	8-hour	-0.1524439
-6.02073	8-month	-0.1524439
-5.583309	8.00	-0.4595837
-6.02073	8.02	-0.1524439
-6.02073	8.03	-0.1524439
-6.02073	8.05	-0.1524439
-6.02073	8.09	-0.1524439
-5.478633	8.1	-0.1524439
-6.02073	8.10	-0.1524439
-6.02073	8.10.	-0.1524439
-6.02073	8.14	-0.1524439
-6.02073	8.15	-0.1524439
-5.478633	8.2	-0.3087305
-6.02073	8.20	-0.1524439
-6.02073	8.22	-0.1524439
-5.854346	8.25	-0.1524439
-6.02073	8.27	-0.1524439
-6.02073	8.28	-0.1524439
-5.721508	8.3	-0.2083564
-5.119735	8.30	-0.4011176
-6.02073	8.34	-0.1524439
-6.02073	8.35	-0.1524439
-6.02073	8.38	-0.1524439
-6.02073	8.39	-0.1524439
-5.478633	8.4	-0.2523981
-6.02073	8.40	-0.1524439
-6.02073	8.41	-0.1524439
-6.02073	8.43	-0.1524439
-6.02073	8.45	-0.1524439
-6.02073	8.46	-0.1524439
-6.02073	8.47	-0.1524439
-6.02073	8.48	-0.1524439
-5.119735	8.5	-0.5375361
-6.02073	8.50	-0.1524439
-6.02073	8.52	-0.1524439
-6.02073	8.55	-0.1524439
-5.854346	8.6	-0.1524439
-6.02073	8.65	-0.1524439
-5.478633	8.7	-0.1965832
-5.478633	8.8	-0.2784592
-5.854346	8.9	-0.1524439
-4.0521	80	-0.6358092
-6.02073	80,000	-0.1524439
-5.721508	80-90	-0.1524439
-6.02073	80-year	-0.1524439
-5.721508	80-year-old	-0.1524439
-6.02073	80.35	-0.1524439
-4.343931	800	-0.4263172
-6.02073	800,000	-0.1524439
-5.394351	8000	-0.1835077
-5.721508	800m	-0.2083564
-6.02073	800s	-0.1524439
-6.02073	800th	-0.1524439
-6.02073	8014	-0.1524439
-6.02073	803	-0.1524439
-5.854346	805	-0.2725459
-6.02073	805m	-0.1524439
-6.02073	808	-0.1524439
-6.02073	8090	-0.1524439
-5.854346	80m	-0.1524439
-5.394351	80s	-0.3389697
-4.812019	81	-0.3056358
-5.854346	81.1	-0.2725459
-5.721508	810	-0.1524439
-6.02073	811	-0.1524439
-6.02073	812	-0.1524439
-6.02073	813	-0.1524439
-6.02073	814	-0.1524439
-5.583309	815	-0.4595837
-6.02073	818	-0.1524439
-4.773678	82	-0.3019488
-5.854346	82-84	-0.1524439
-6.02073	82-year-old	-0.1524439
-6.02073	82.1	-0.1524439
-6.02073	82.5	-0.1524439
-5.394351	820	-0.2433655
-6.02073	821	-0.1524439
-6.02073	822	-0.1524439
-5.854346	823	-0.1524439
-6.02073	824	-0.1524439
-6.02073	825	-0.1524439
-5.854346	826	-0.2725459
-6.02073	827	-0.1524439
-6.02073	828	-0.1524439
-6.02073	829	-0.1524439
-4.792426	83	-0.281889
-6.02073	83-page	-0.1524439
-6.02073	83.3	-0.1524439
-6.02073	83.5	-0.1524439
-5.583309	830	-0.2523981
-6.02073	831	-0.1524439
-6.02073	833	-0.1524439
-5.854346	834	-0.1524439
-6.02073	83bn	-0.1524439
-4.952817	84	-0.2904474
-6.02073	84-year	-0.1524439
-6.02073	84.5	-0.1524439
-6.02073	84.9	-0.1524439
-5.721508	840	-0.1524439
-6.02073	841	-0.1524439
-6.02073	842	-0.1524439
-5.854346	844	-0.1524439
-6.02073	847	-0.1524439
-6.02073	84th	-0.1524439
-4.337162	85	-0.5188605
-6.02073	85.5	-0.1524439
-6.02073	85.8	-0.1524439
-5.119735	850	-0.2661416
-6.02073	850.5m	-0.1524439
-5.854346	851	-0.2287167
-6.02073	852	-0.1524439
-6.02073	855	-0.1524439
-6.02073	857	-0.1524439
-6.02073	858	-0.1524439
-5.854346	85m	-0.1524439
-4.854076	86	-0.3628117
-6.02073	86-year-old	-0.1524439
-6.02073	86.3	-0.1524439
-6.02073	86.45	-0.1524439
-5.583309	860	-0.2814463
-6.02073	864	-0.1524439
-5.854346	865	-0.1524439
-5.854346	866	-0.1524439
-6.02073	869	-0.1524439
-6.02073	86th	-0.1524439
-4.755707	87	-0.2697403
-6.02073	87.9	-0.1524439
-6.02073	870	-0.1524439
-6.02073	8701	-0.1524439
-6.02073	870m	-0.1524439
-5.854346	875	-0.1524439
-6.02073	878	-0.1524439
-4.812019	88	-0.3356474
-6.02073	88-98	-0.1524439
-6.02073	88-word	-0.1524439
-5.583309	880	-0.1524439
-6.02073	8800	-0.1524439
-6.02073	881	-0.1524439
-6.02073	883	-0.1524439
-6.02073	884	-0.1524439
-6.02073	885	-0.1524439
-6.02073	885.5	-0.1524439
-6.02073	885.5m	-0.1524439
-5.854346	886	-0.1524439
-6.02073	887	-0.1524439
-6.02073	888	-0.1524439
-6.02073	88g	-0.1524439
-4.738449	89	-0.3360254
-6.02073	89.6	-0.1524439
-5.854346	890	-0.1524439
-5.721508	894	-0.1524439
-6.02073	895	-0.1524439
-5.854346	899	-0.1524439
-5.721508	8a	-0.1524439
-5.583309	8b	-0.188908
-6.02073	8bn	-0.1524439
-6.02073	8c	-0.1524439
-6.02073	8d	-0.1524439
-6.02073	8j	-0.1524439
-6.02073	8m	-0.1524439
-5.394351	8th	-0.2121728
-4.1904	9	-0.4514468
-6.02073	9,10,12	-0.1524439
-5.583309	9-10	-0.1524439
-6.02073	9-11	-0.1524439
-6.02073	9-12	-0.1524439
-6.02073	9-13	-0.1524439
-6.02073	9-17	-0.1524439
-5.854346	9-20	-0.1524439
-6.02073	9.	-0.1524439
-5.323797	9.00	-0.3835423
-6.02073	9.01	-0.1524439
-6.02073	9.05	-0.1524439
-6.02073	9.08	-0.1524439
-6.02073	9.10	-0.1524439
-5.721508	9.15	-0.2083564
-5.583309	9.2	-0.2814463
-6.02073	9.2.2000	-0.1524439
-6.02073	9.20	-0.1524439
-6.02073	9.21	-0.1524439
-5.854346	9.25	-0.1524439
-5.854346	9.3	-0.272546
-5.583309	9.30	-0.2287167
-6.02073	9.30.	-0.1524439
-6.02073	9.35	-0.1524439
-5.583309	9.4	-0.2083564
-6.02073	9.4.12	-0.1524439
-6.02073	9.40	-0.1524439
-6.02073	9.45	-0.1524439
-6.02073	9.48	-0.1524439
-5.162477	9.5	-0.4575376
-6.02073	9.50	-0.1524439
-6.02073	9.52	-0.1524439
-6.02073	9.55	-0.1524439
-6.02073	9.6	-0.1524439
-6.02073	9.65	-0.1524439
-6.02073	9.7	-0.1524439
-6.02073	9.846	-0.1524439
-6.02073	9.869	-0.1524439
-5.583309	9.9	-0.2814463
-4.144963	90	-0.5355819
-5.854346	90,000	-0.1524439
-5.721508	90-animal	-0.2287167
-5.721508	90-head	-0.2523981
-6.02073	90-hour	-0.1524439
-6.02073	90.2.	-0.1524439
-6.02073	90.9	-0.1524439
-6.02073	90.94	-0.1524439
-4.661159	900	-0.3389324
-5.854346	9000	-0.1524439
-6.02073	9002	-0.1524439
-5.854346	901	-0.1524439
-5.583309	904	-0.2083564
-5.721508	90s	-0.2121728
-6.02073	90th	-0.1524439
-4.832539	91	-0.2687773
-6.02073	91,000	-0.1524439
-6.02073	91.05	-0.1524439
-6.02073	91.5	-0.1524439
-6.02073	91.6	-0.1524439
-5.721508	910	-0.2287167
-6.02073	910m	-0.1524439
-6.02073	911	-0.1524439
-5.854346	912	-0.1524439
-6.02073	914	-0.1524439
-5.721508	916	-0.2287167
-6.02073	919	-0.1524439
-4.721851	92	-0.3092912
-6.02073	92.3	-0.1524439
-6.02073	92.8	-0.1524439
-5.721508	920	-0.334645
-6.02073	920m	-0.1524439
-6.02073	923	-0.1524439
-6.02073	9243	-0.1524439
-5.854346	925	-0.1524439
-6.02073	926	-0.1524439
-4.832539	93	-0.2813676
-6.02073	93.6	-0.1524439
-6.02073	9300	-0.1524439
-6.02073	931	-0.1524439
-6.02073	933	-0.1524439
-6.02073	9337	-0.1524439
-6.02073	936	-0.1524439
-6.02073	937	-0.1524439
-4.876737	94	-0.2679853
-6.02073	94.6	-0.1524439
-6.02073	940	-0.1524439
-6.02073	9408	-0.1524439
-6.02073	94m	-0.1524439
-6.02073	94p	-0.1524439
-4.434628	95	-0.4510105
-6.02073	95.3	-0.1524439
-5.263119	950	-0.2322708
-6.02073	950,000	-0.1524439
-6.02073	958	-0.1524439
-6.02073	959	-0.1524439
-4.705865	96	-0.2658707
-6.02073	96-0-0194	-0.1524439
-6.02073	96-98	-0.1524439
-5.854346	960	-0.1524439
-6.02073	964	-0.1524439
-6.02073	965	-0.1524439
-6.02073	965m	-0.1524439
-4.620628	97	-0.3459019
-6.02073	97-1998	-0.1524439
-6.02073	97-98	-0.1524439
-6.02073	97.1	-0.1524439
-6.02073	97.2	-0.1524439
-6.02073	97.5	-0.1524439
-6.02073	97.8	-0.1524439
-6.02073	970	-0.1524439
-5.854346	971	-0.1524439
-6.02073	974	-0.1524439
-4.755707	98	-0.2987594
-6.02073	98.2	-0.1524439
-5.854346	98.3	-0.272546
-6.02073	98.5	-0.1524439
-6.02073	98.6	-0.1524439
-5.854346	980	-0.1524439
-6.02073	9802	-0.1524439
-5.854346	9803	-0.2725459
-6.02073	9844	-0.1524439
-6.02073	9845	-0.1524439
-6.02073	986	-0.1524439
-5.854346	987	-0.1524439
-6.02073	987eec	-0.1524439
-6.02073	988	-0.1524439
-4.620628	99	-0.3490835
-6.02073	99.1	-0.1524439
-6.02073	99.2	-0.1524439
-6.02073	99.28	-0.1524439
-6.02073	99.3	-0.1524439
-6.02073	99.4	-0.1524439
-6.02073	99.69	-0.1524439
-5.583309	99.8	-0.4595838
-5.583309	99.9	-0.4595838
-6.02073	990	-0.1524439
-6.02073	992	-0.1524439
-6.02073	993	-0.1524439
-6.02073	995	-0.1524439
-6.02073	996	-0.1524439
-5.854346	999	-0.1524439
-5.854346	9a	-0.1524439
-6.02073	9m	-0.1524439
-6.02073	9th	-0.1524439
-2.607946	:	-0.7316303
-2.69276	;	-0.9945251
-2.934429	</s>
-99	<s>	-1.906752
-5.119735	=	-0.5350888
-6.02073	>	-0.1524439
-2.438447	?	-1.531357
-5.721508	@	-0.1524439
-4.235801	[	-0.2919908
-5.854346	\	-0.2725459
-4.386916	]	-0.3953145
-5.854346	_	-0.1524439
-2.475791	a	-0.9185163
-6.02073	a-0000	-0.1524439
-6.02073	a-0064	-0.1524439
-6.02073	a-0091	-0.1524439
-6.02073	a-0115	-0.1524439
-6.02073	a-0133	-0.1524439
-6.02073	a-0138	-0.1524439
-6.02073	a-0141	-0.1524439
-6.02073	a-0143	-0.1524439
-6.02073	a-0171	-0.1524439
-6.02073	a-0174	-0.1524439
-6.02073	a-0185	-0.1524439
-5.854346	a-0245	-0.1524439
-6.02073	a-0281	-0.1524439
-6.02073	a-0284	-0.1524439
-6.02073	a-0347	-0.1524439
-6.02073	a-0369	-0.1524439
-6.02073	a-0371	-0.1524439
-6.02073	a-0374	-0.1524439
-6.02073	a-0396	-0.1524439
-6.02073	a-200	-0.1524439
-6.02073	a-2510	-0.1524439
-5.394351	a-30	-0.1524439
-6.02073	a-3014	-0.1524439
-6.02073	a-3015	-0.1524439
-5.854346	a-3021	-0.1524439
-6.02073	a-3035	-0.1524439
-6.02073	a-3042	-0.1524439
-6.02073	a-400	-0.1524439
-6.02073	a-4s	-0.1524439
-6.02073	a-5s	-0.1524439
-6.02073	a-7	-0.1524439
-6.02073	a-cash	-0.1524439
-5.721508	a-grade	-0.1524439
-6.02073	a-grades	-0.1524439
-6.02073	a-regions	-0.1524439
-5.394351	a.	-0.1524439
-6.02073	a.4	-0.1524439
-6.02073	a.746	-0.1524439
-6.02073	a.a.j.g.	-0.1524439
-6.02073	a.d.	-0.1524439
-6.02073	a.i	-0.1524439
-4.792426	a.m	-0.7579848
-4.1904	a.m.	-0.716335
-5.012122	a1	-0.2320124
-6.02073	a12	-0.1524439
-6.02073	a120	-0.1524439
-6.02073	a1900	-0.1524439
-5.323797	a2	-0.1923799
-6.02073	a2-level	-0.1524439
-6.02073	a200	-0.1524439
-6.02073	a22	-0.1524439
-6.02073	a2s	-0.1524439
-5.721508	a3	-0.1524439
-6.02073	a30	-0.1524439
-5.854346	a32	-0.1524439
-6.02073	a337	-0.1524439
-6.02073	a360	-0.1524439
-5.854346	a4	-0.1524439
-6.02073	a4-0001	-0.1524439
-6.02073	a4-0002	-0.1524439
-6.02073	a4-0003	-0.1524439
-6.02073	a4-0004	-0.1524439
-6.02073	a4-0005	-0.1524439
-6.02073	a4-0006	-0.1524439
-6.02073	a4-0008	-0.1524439
-6.02073	a4-0009	-0.1524439
-6.02073	a4-0010	-0.1524439
-6.02073	a4-0011	-0.1524439
-6.02073	a4-0012	-0.1524439
-6.02073	a4-0013	-0.1524439
-6.02073	a4-0014	-0.1524439
-6.02073	a4-0015	-0.1524439
-6.02073	a4-0016	-0.1524439
-6.02073	a4-0018	-0.1524439
-6.02073	a4-0020	-0.1524439
-6.02073	a4-0021	-0.1524439
-6.02073	a4-0022	-0.1524439
-6.02073	a4-0023	-0.1524439
-6.02073	a4-0024	-0.1524439
-6.02073	a4-0025	-0.1524439
-6.02073	a4-0027	-0.1524439
-6.02073	a4-0028	-0.1524439
-6.02073	a4-0029	-0.1524439
-6.02073	a4-0030	-0.1524439
-6.02073	a4-0031	-0.1524439
-6.02073	a4-0032	-0.1524439
-6.02073	a4-0033	-0.1524439
-6.02073	a4-0034	-0.1524439
-6.02073	a4-0035	-0.1524439
-6.02073	a4-0036	-0.1524439
-6.02073	a4-0037	-0.1524439
-6.02073	a4-0038	-0.1524439
-6.02073	a4-0040	-0.1524439
-6.02073	a4-0041	-0.1524439
-6.02073	a4-0042	-0.1524439
-6.02073	a4-0043	-0.1524439
-6.02073	a4-0044	-0.1524439
-6.02073	a4-0045	-0.1524439
-6.02073	a4-0046	-0.1524439
-6.02073	a4-0047	-0.1524439
-6.02073	a4-0048	-0.1524439
-6.02073	a4-0049	-0.1524439
-6.02073	a4-0051	-0.1524439
-6.02073	a4-0052	-0.1524439
-6.02073	a4-0053	-0.1524439
-6.02073	a4-0054	-0.1524439
-6.02073	a4-0056	-0.1524439
-6.02073	a4-0057	-0.1524439
-6.02073	a4-0058	-0.1524439
-6.02073	a4-0059	-0.1524439
-6.02073	a4-0060	-0.1524439
-6.02073	a4-0061	-0.1524439
-6.02073	a4-0062	-0.1524439
-6.02073	a4-0063	-0.1524439
-6.02073	a4-0065	-0.1524439
-6.02073	a4-0067	-0.1524439
-6.02073	a4-0068	-0.1524439
-6.02073	a4-0069	-0.1524439
-6.02073	a4-0070	-0.1524439
-6.02073	a4-0071	-0.1524439
-6.02073	a4-0072	-0.1524439
-6.02073	a4-0073	-0.1524439
-6.02073	a4-0074	-0.1524439
-6.02073	a4-0075	-0.1524439
-6.02073	a4-0077	-0.1524439
-6.02073	a4-0078	-0.1524439
-6.02073	a4-0079	-0.1524439
-6.02073	a4-0080	-0.1524439
-6.02073	a4-0082	-0.1524439
-6.02073	a4-0083	-0.1524439
-6.02073	a4-0084	-0.1524439
-6.02073	a4-0085	-0.1524439
-6.02073	a4-0087	-0.1524439
-6.02073	a4-0088	-0.1524439
-6.02073	a4-0090	-0.1524439
-6.02073	a4-0091	-0.1524439
-6.02073	a4-0092	-0.1524439
-6.02073	a4-0093	-0.1524439
-6.02073	a4-0094	-0.1524439
-6.02073	a4-0095	-0.1524439
-6.02073	a4-0096	-0.1524439
-6.02073	a4-0097	-0.1524439
-6.02073	a4-0098	-0.1524439
-6.02073	a4-0099	-0.1524439
-6.02073	a4-0100	-0.1524439
-6.02073	a4-0101	-0.1524439
-6.02073	a4-0103	-0.1524439
-6.02073	a4-0104	-0.1524439
-6.02073	a4-0105	-0.1524439
-6.02073	a4-0106	-0.1524439
-6.02073	a4-0107	-0.1524439
-6.02073	a4-0108	-0.1524439
-6.02073	a4-0109	-0.1524439
-5.854346	a4-0110	-0.2725459
-6.02073	a4-0111	-0.1524439
-6.02073	a4-0112	-0.1524439
-6.02073	a4-0116	-0.1524439
-6.02073	a4-0117	-0.1524439
-6.02073	a4-0119	-0.1524439
-6.02073	a4-0120	-0.1524439
-6.02073	a4-0121	-0.1524439
-6.02073	a4-0122	-0.1524439
-6.02073	a4-0123	-0.1524439
-6.02073	a4-0125	-0.1524439
-6.02073	a4-0126	-0.1524439
-6.02073	a4-0128	-0.1524439
-6.02073	a4-0130	-0.1524439
-6.02073	a4-0133	-0.1524439
-6.02073	a4-0134	-0.1524439
-6.02073	a4-0135	-0.1524439
-6.02073	a4-0136	-0.1524439
-6.02073	a4-0137	-0.1524439
-6.02073	a4-0138	-0.1524439
-6.02073	a4-0139	-0.1524439
-6.02073	a4-0140	-0.1524439
-6.02073	a4-0141	-0.1524439
-6.02073	a4-0143	-0.1524439
-6.02073	a4-0144	-0.1524439
-6.02073	a4-0146	-0.1524439
-6.02073	a4-0148	-0.1524439
-6.02073	a4-0149	-0.1524439
-6.02073	a4-0150	-0.1524439
-6.02073	a4-0151	-0.1524439
-6.02073	a4-0152	-0.1524439
-6.02073	a4-0153	-0.1524439
-6.02073	a4-0154	-0.1524439
-6.02073	a4-0155	-0.1524439
-6.02073	a4-0156	-0.1524439
-6.02073	a4-0157	-0.1524439
-6.02073	a4-0158	-0.1524439
-6.02073	a4-0159	-0.1524439
-6.02073	a4-0160	-0.1524439
-6.02073	a4-0161	-0.1524439
-6.02073	a4-0162	-0.1524439
-6.02073	a4-0163	-0.1524439
-6.02073	a4-0164	-0.1524439
-6.02073	a4-0165	-0.1524439
-6.02073	a4-0166	-0.1524439
-6.02073	a4-0167	-0.1524439
-6.02073	a4-0168	-0.1524439
-6.02073	a4-0169	-0.1524439
-6.02073	a4-0170	-0.1524439
-6.02073	a4-0171	-0.1524439
-6.02073	a4-0172	-0.1524439
-6.02073	a4-0173	-0.1524439
-6.02073	a4-0174	-0.1524439
-6.02073	a4-0176	-0.1524439
-6.02073	a4-0177	-0.1524439
-6.02073	a4-0178	-0.1524439
-6.02073	a4-0179	-0.1524439
-6.02073	a4-0181	-0.1524439
-6.02073	a4-0183	-0.1524439
-5.854346	a4-0184	-0.2725459
-6.02073	a4-0185	-0.1524439
-6.02073	a4-0186	-0.1524439
-6.02073	a4-0187	-0.1524439
-6.02073	a4-0188	-0.1524439
-6.02073	a4-0189	-0.1524439
-5.854346	a4-0190	-0.2725459
-6.02073	a4-0191	-0.1524439
-6.02073	a4-0192	-0.1524439
-6.02073	a4-0193	-0.1524439
-6.02073	a4-0194	-0.1524439
-6.02073	a4-0195	-0.1524439
-6.02073	a4-0196	-0.1524439
-6.02073	a4-0197	-0.1524439
-6.02073	a4-0198	-0.1524439
-6.02073	a4-0199	-0.1524439
-6.02073	a4-0200	-0.1524439
-6.02073	a4-0201	-0.1524439
-6.02073	a4-0202	-0.1524439
-6.02073	a4-0203	-0.1524439
-6.02073	a4-0204	-0.1524439
-6.02073	a4-0205	-0.1524439
-6.02073	a4-0206	-0.1524439
-6.02073	a4-0207	-0.1524439
-6.02073	a4-0208	-0.1524439
-6.02073	a4-0210	-0.1524439
-6.02073	a4-0211	-0.1524439
-6.02073	a4-0212	-0.1524439
-6.02073	a4-0213	-0.1524439
-6.02073	a4-0214	-0.1524439
-6.02073	a4-0215	-0.1524439
-6.02073	a4-0216	-0.1524439
-6.02073	a4-0218	-0.1524439
-6.02073	a4-0219	-0.1524439
-6.02073	a4-0220	-0.1524439
-6.02073	a4-0221	-0.1524439
-6.02073	a4-0222	-0.1524439
-6.02073	a4-0223	-0.1524439
-6.02073	a4-0224	-0.1524439
-6.02073	a4-0225	-0.1524439
-6.02073	a4-0226	-0.1524439
-6.02073	a4-0227	-0.1524439
-6.02073	a4-0228	-0.1524439
-6.02073	a4-0229	-0.1524439
-6.02073	a4-0230	-0.1524439
-6.02073	a4-0231	-0.1524439
-6.02073	a4-0232	-0.1524439
-6.02073	a4-0233	-0.1524439
-6.02073	a4-0234	-0.1524439
-6.02073	a4-0235	-0.1524439
-6.02073	a4-0237	-0.1524439
-6.02073	a4-0238	-0.1524439
-6.02073	a4-0239	-0.1524439
-6.02073	a4-0240	-0.1524439
-6.02073	a4-0241	-0.1524439
-6.02073	a4-0242	-0.1524439
-6.02073	a4-0243	-0.1524439
-6.02073	a4-0246	-0.1524439
-6.02073	a4-0247	-0.1524439
-6.02073	a4-0248	-0.1524439
-5.854346	a4-0249	-0.2725459
-6.02073	a4-0251	-0.1524439
-6.02073	a4-0252	-0.1524439
-6.02073	a4-0253	-0.1524439
-6.02073	a4-0255	-0.1524439
-6.02073	a4-0256	-0.1524439
-6.02073	a4-0257	-0.1524439
-6.02073	a4-0258	-0.1524439
-5.854346	a4-0262	-0.2725459
-6.02073	a4-0263	-0.1524439
-6.02073	a4-0264	-0.1524439
-6.02073	a4-0265	-0.1524439
-6.02073	a4-0266	-0.1524439
-6.02073	a4-0267	-0.1524439
